svm_type epsilon_svr
kernel_type rbf
gamma 0.1
nr_class 2
total_sv 628
rho -3.01833
SV
20 1:0 2:1 3:0 4:0 5:1 6:0 7:1 8:0.666667 9:0.5 10:0 11:0.666667 12:0.5 13:0 14:1 15:0.73949 16:0.594305 17:0.972775 18:0.963172 19:0.974287 20:0 21:0.005196 
-20 1:0 2:1 3:0 4:0 5:1 6:0 7:1 8:0.5 9:0 10:1 11:0.5 12:0 13:1 14:0.645161 15:0.58638 16:0.470336 17:0.524901 18:0.469532 19:0.428903 20:0 21:0.086606 
-20 1:0 2:1 3:0 4:0 5:1 6:0 7:1 8:0.833333 9:0.6 10:0.25 11:0.833333 12:0.6 13:0.25 14:0.868 15:0.794431 16:0.781328 17:0.915918 18:0.859308 19:0.82928 20:0 21:0.104513 
-20 1:0 2:1 3:0 4:0 5:1 6:0 7:1 8:0.666667 9:0 10:0 11:0.666667 12:0 13:0 14:1 15:0.759472 16:0.665558 17:0.851871 18:0.869985 19:0.823031 20:0 21:0.140638 
20 1:0 2:1 3:0 4:0 5:1 6:0 7:1 8:0.666667 9:0 10:0 11:0.666667 12:0 13:0 14:0.735849 15:0.730304 16:0.651663 17:0.803588 18:0.783459 19:0.660169 20:0 21:0.1282 
20 1:0 2:1 3:0 4:0 5:1 6:0 7:1 8:0.666667 9:0 10:0 11:0.666667 12:0 13:0 14:1 15:0.734784 16:0.679233 17:0.82848 18:0.854963 19:0.782297 20:0 21:0.139013 
-20 1:0 2:1 3:0 4:0 5:1 6:0 7:1 8:0.666667 9:0.5 10:0 11:0.666667 12:0.5 13:0 14:0.777778 15:0.714564 16:0.721564 17:0.86547 18:0.906931 19:0.888751 20:0 21:0.038801 
20 1:0 2:1 3:0 4:0 5:1 6:0 7:1 8:0.571429 9:0.4 10:0 11:0.571429 12:0.4 13:0 14:0.69403 15:0.755326 16:0.581915 17:0.733347 18:0.758585 19:0.649685 20:0.249999 21:0.11841 
-20 1:0 2:1 3:0 4:0 5:1 6:0 7:1 8:0.333333 9:0 10:0 11:0.333333 12:0 13:0 14:0.555556 15:0.570362 16:0.309401 17:0.82367 18:0.841944 19:0.801784 20:0 21:0.076201 
4.126344014186305 1:0 2:1 3:0 4:0 5:1 6:0 7:1 8:1 9:1 10:1 11:1 12:1 13:1 14:1 15:0.860928 16:1 17:1 18:1 19:1 20:0 21:0.059689 
-20 1:0 2:1 3:0 4:0 5:1 6:0 7:1 8:0.75 9:0.333333 10:0 11:0.75 12:0.333333 13:0 14:0.833333 15:0.748924 16:0.748112 17:0.823048 18:0.830297 19:0.787172 20:0 21:0.103679 
-20 1:0 2:1 3:0 4:0 5:1 6:0 7:1 8:0.666667 9:0.5 10:0 11:0.666667 12:0.5 13:0 14:0.75 15:0.816565 16:0.712777 17:0.786838 18:0.846274 19:0.795121 20:0 21:0.100776 
20 1:0 2:1 3:0 4:0 5:1 6:0 7:1 8:0.666667 9:0.5 10:0 11:0.666667 12:0.5 13:0 14:0.777778 15:0.790096 16:0.672939 17:0.921393 18:0.92544 19:0.801029 20:0 21:0.079335 
-20 1:0 2:1 3:0 4:0 5:1 6:0 7:1 8:0.666667 9:0 10:0 11:0.666667 12:0 13:0 14:0.723684 15:0.727978 16:0.61635 17:0.951706 18:0.939497 19:0.688912 20:0 21:0.015666 
20 1:0 2:1 3:0 4:0 5:1 6:0 7:1 8:0.75 9:0.333333 10:0 11:0.75 12:0.333333 13:0 14:0.8125 15:0.805891 16:0.713022 17:0.84827 18:0.802567 19:0.703352 20:0 21:0.057065 
20 1:0 2:1 3:0 4:0 5:1 6:0 7:1 8:0.666667 9:0.5 10:0 11:0.666667 12:0.5 13:0 14:0.777778 15:0.767258 16:0.657954 17:0.837766 18:0.831725 19:0.739735 20:0 21:0.042495 
20 1:0 2:1 3:0 4:0 5:1 6:0 7:1 8:0.857143 9:0.8 10:0.666667 11:0.857143 12:0.8 13:0.666667 14:0.888889 15:0.926476 16:0.888998 17:0.909098 18:0.940793 19:0.927536 20:0.249999 21:0.127228 
20 1:0 2:1 3:0 4:0 5:1 6:0 7:1 8:0.857143 9:0.4 10:0 11:0.857143 12:0.4 13:0 14:0.909091 15:0.932043 16:0.894487 17:0.886931 18:0.939297 19:0.937068 20:0.249999 21:0.101883 
20 1:0 2:1 3:0 4:0 5:1 6:0 7:1 8:0.666667 9:0.5 10:0 11:0.666667 12:0.5 13:0 14:0.722222 15:0.726791 16:0.565917 17:0.6834 18:0.483877 19:0.560675 20:0 21:0.04296 
20 1:0 2:1 3:0 4:0 5:1 6:0 7:1 8:0.666667 9:0.2 10:0 11:0.833333 12:0.6 13:0.5 14:1 15:0.652898 16:0.789412 17:0.984758 18:0.97453 19:0.982273 20:0 21:0.060324 
11.82911702829124 1:0 2:1 3:0 4:0 5:1 6:0 7:1 8:0.857143 9:0.4 10:0 11:0.857143 12:0.4 13:0 14:0.877193 15:0.853987 16:0.869757 17:0.878891 18:0.903674 19:0.918687 20:0.249999 21:0.173657 
20 1:0 2:1 3:0 4:0 5:1 6:0 7:1 8:0.666667 9:0 10:0 11:1 12:1 13:1 14:1 15:0.711693 16:1 17:1 18:1 19:1 20:0 21:0.028055 
20 1:0 2:1 3:0 4:0 5:1 6:0 7:1 8:0.333333 9:0 10:0 11:0.333333 12:0 13:0 14:0.611111 15:0.581652 16:0.392761 17:0.714282 18:0.776207 19:0.572435 20:0 21:0.180085 
-20 1:0 2:1 3:0 4:0 5:1 6:0 7:1 8:0.666667 9:0.5 10:0 11:0.666667 12:0.5 13:0 14:0.75 15:0.819492 16:0.712777 17:0.786838 18:0.846274 19:0.795121 20:0 21:0.096621 
-20 1:0 2:1 3:0 4:0 5:1 6:0 7:1 8:0.666667 9:0.5 10:0 11:0.666667 12:0.5 13:0 14:0.75 15:0.812709 16:0.702633 17:0.837489 18:0.87359 19:0.785447 20:0 21:0.106594 
20 1:0 2:1 3:0 4:0 5:1 6:0 7:1 8:0.666667 9:0.5 10:0 11:0.666667 12:0.5 13:0 14:0.75 15:0.757589 16:0.623547 17:0.750693 18:0.689749 19:0.645827 20:0 21:0.155271 
-20 1:0 2:1 3:0 4:0 5:1 6:0 7:1 8:0.666667 9:0.5 10:0 11:0.666667 12:0.5 13:0 14:0.75 15:0.819492 16:0.712777 17:0.786838 18:0.846274 19:0.795121 20:0 21:0.096621 
20 1:0 2:1 3:0 4:0 5:1 6:0 7:1 8:0.857143 9:0.8 10:0.666667 11:0.857143 12:0.8 13:0.666667 14:0.888889 15:0.842725 16:0.873636 17:0.905509 18:0.929355 19:0.934418 20:0.249999 21:0.2066 
-20 1:0 2:1 3:0 4:0 5:1 6:0 7:1 8:0.545455 9:0.222222 10:0 11:0.909091 12:0.666667 13:0.571429 14:0.925373 15:0.537103 16:0.88874 17:0.987813 18:0.985849 19:0.949325 20:0.166666 21:0.176362 
20 1:0 2:1 3:0 4:0 5:1 6:0 7:1 8:0.333333 9:0 10:0 11:0.333333 12:0 13:0 14:0.777778 15:0.614761 16:0.417875 17:0.62932 18:0.706939 19:0.617124 20:0 21:0.11483 
20 1:0 2:1 3:0 4:0 5:1 6:0 7:1 8:0.666667 9:0.5 10:0 11:0.666667 12:0.5 13:0 14:0.722222 15:0.728995 16:0.565917 17:0.6834 18:0.483877 19:0.560675 20:0 21:0.042021 
20 1:0 2:1 3:0 4:0 5:1 6:0 7:1 8:0.666667 9:0.5 10:0 11:0.666667 12:0.5 13:0 14:0.722222 15:0.728995 16:0.565917 17:0.6834 18:0.483877 19:0.560675 20:0 21:0.042021 
-20 1:0 2:1 3:0 4:0 5:1 6:0 7:1 8:0.666667 9:0.5 10:0 11:0.666667 12:0.5 13:0 14:0.722222 15:0.728995 16:0.565917 17:0.6834 18:0.483877 19:0.560675 20:0 21:0.042021 
-20 1:0 2:1 3:0 4:0 5:1 6:0 7:1 8:0.666667 9:0.5 10:0 11:0.666667 12:0.5 13:0 14:0.777778 15:0.740744 16:0.580669 17:0.661694 18:0.478765 19:0.535267 20:0 21:0.045851 
-20 1:0 2:1 3:0 4:0 5:1 6:0 7:1 8:0.666667 9:0.5 10:0 11:0.666667 12:0.5 13:0 14:0.777778 15:0.740744 16:0.580669 17:0.661694 18:0.478765 19:0.535267 20:0 21:0.045851 
20 1:0 2:1 3:0 4:0 5:1 6:0 7:1 8:0.666667 9:0.5 10:0 11:0.666667 12:0.5 13:0 14:0.722222 15:0.728995 16:0.565917 17:0.6834 18:0.483877 19:0.560675 20:0 21:0.042021 
20 1:0 2:1 3:0 4:0 5:1 6:0 7:1 8:0.666667 9:0.5 10:0 11:0.666667 12:0.5 13:0 14:0.722222 15:0.728995 16:0.565917 17:0.6834 18:0.483877 19:0.560675 20:0 21:0.042021 
-20 1:0 2:1 3:0 4:0 5:1 6:0 7:1 8:0.857143 9:0.4 10:0 11:0.857143 12:0.4 13:0 14:0.896552 15:0.871136 16:0.817362 17:0.908679 18:0.878111 19:0.808778 20:0.249999 21:0.36048 
20 1:0 2:1 3:0 4:0 5:1 6:0 7:1 8:0.666667 9:0.5 10:0 11:0.666667 12:0.5 13:0 14:0.833333 15:0.77879 16:0.756145 17:0.802465 18:0.902287 19:0.89115 20:0 21:0.043551 
20 1:0 2:1 3:0 4:0 5:1 6:0 7:1 8:0.75 9:0.333333 10:0 11:0.75 12:0.333333 13:0 14:0.816568 15:0.846475 16:0.767076 17:0.812789 18:0.849266 19:0.850002 20:0.399999 21:0.323808 
20 1:0 2:1 3:0 4:0 5:1 6:0 7:1 8:0.909091 9:0.888889 10:0.857143 11:0.909091 12:0.888889 13:0.857143 14:0.956522 15:0.861444 16:0.911259 17:0.929757 18:0.934009 19:0.925807 20:0.166666 21:0.176536 
-20 1:0 2:1 3:0 4:0 5:1 6:0 7:1 8:0.666667 9:0.5 10:0 11:0.666667 12:0.5 13:0 14:0.833333 15:0.824038 16:0.763052 17:0.663342 18:0.838391 19:0.853107 20:0 21:0.039078 
20 1:0 2:1 3:0 4:0 5:1 6:0 7:1 8:0.666667 9:0.5 10:0 11:0.666667 12:0.5 13:0 14:0.718232 15:0.725405 16:0.628395 17:0.967503 18:0.952866 19:0.92457 20:0 21:0.128801 
20 1:0 2:1 3:0 4:0 5:1 6:0 7:1 8:0.666667 9:0.5 10:0 11:0.666667 12:0.5 13:0 14:0.833333 15:0.818444 16:0.703716 17:0.800272 18:0.846832 19:0.794948 20:0 21:0.055732 
20 1:0 2:1 3:0 4:0 5:1 6:0 7:1 8:0.5 9:0 10:1 11:0.5 12:0 13:1 14:0.75 15:0.613136 16:0.41701 17:0.818711 18:0.750991 19:0.718166 20:0 21:0.067533 
20 1:0 2:1 3:0 4:0 5:1 6:0 7:1 8:0.666667 9:0.5 10:0 11:0.666667 12:0.5 13:0 14:0.777778 15:0.74807 16:0.658519 17:0.883804 18:0.885434 19:0.797787 20:0 21:0.062574 
20 1:0 2:1 3:0 4:0 5:1 6:0 7:1 8:0.666667 9:0.5 10:0 11:0.666667 12:0.5 13:0 14:0.777778 15:0.603452 16:0.551712 17:0.799837 18:0.656666 19:0.902775 20:0 21:0.08636 
20 1:0 2:1 3:0 4:0 5:1 6:0 7:1 8:0.333333 9:0 10:0 11:0.333333 12:0 13:0 14:0.498298 15:0.568997 16:0.372048 17:0.821508 18:0.865606 19:0.614921 20:0 21:0.034589 
-20 1:0 2:1 3:0 4:0 5:1 6:0 7:1 8:0.666667 9:0.5 10:0 11:0.666667 12:0.5 13:0 14:0.777778 15:0.686289 16:0.620093 17:0.944411 18:0.936189 19:0.876414 20:0 21:0.035912 
4.531666221414394 1:0 2:1 3:0 4:0 5:1 6:0 7:1 8:0.666667 9:0 10:0 11:1 12:1 13:1 14:1 15:0.702496 16:1 17:1 18:1 19:1 20:0 21:0.030419 
-20 1:0 2:1 3:0 4:0 5:1 6:0 7:1 8:0.8 9:0.666667 10:1 11:0.8 12:0.666667 13:1 14:0.875 15:0.874752 16:0.836735 17:0.895405 18:0.926316 19:0.889048 20:0.333332 21:0.172899 
-20 1:0 2:1 3:0 4:0 5:1 6:0 7:1 8:0.888889 9:0.857143 10:0.8 11:0.888889 12:0.857143 13:0.8 14:0.909091 15:0.836211 16:0.901107 17:0.920185 18:0.937955 19:0.927842 20:0.2 21:0.186822 
20 1:0 2:1 3:0 4:0 5:1 6:0 7:1 8:0.5 9:0 10:0 11:0.5 12:0 13:0 14:0.666667 15:0.64226 16:0.516961 17:0.860688 18:0.887003 19:0.719688 20:0 21:0.035663 
-20 1:0 2:1 3:0 4:0 5:1 6:0 7:1 8:0.5 9:0 10:1 11:0.5 12:0 13:1 14:0.625 15:0.626919 16:0.418693 17:0.480768 18:0.315576 19:0.36039 20:0 21:0.036522 
20 1:0 2:1 3:0 4:0 5:1 6:0 7:1 8:0.333333 9:0 10:0 11:0.333333 12:0 13:0 14:0.722222 15:0.493207 16:0.262421 17:0.418512 18:0.278033 19:0.265583 20:0 21:0.228039 
20 1:0 2:1 3:0 4:0 5:1 6:0 7:1 8:0.333333 9:0 10:0 11:0.333333 12:0 13:0 14:0.566396 15:0.558241 16:0.297749 17:0.571207 18:0.436528 19:0.543176 20:0 21:0.009543 
20 1:0 2:1 3:0 4:0 5:1 6:0 7:1 8:0.888889 9:0.571429 10:0.4 11:0.888889 12:0.571429 13:0.4 14:0.947368 15:0.897111 16:0.868156 17:0.959069 18:0.960965 19:0.917537 20:0.2 21:0.244118 
20 1:0 2:1 3:0 4:0 5:1 6:0 7:1 8:0.857143 9:0.8 10:0.666667 11:0.857143 12:0.8 13:0.666667 14:0.888889 15:0.868358 16:0.889141 17:0.910083 18:0.941725 19:0.930328 20:0.249999 21:0.144873 
20 1:0 2:1 3:0 4:0 5:1 6:0 7:1 8:0.857143 9:0.4 10:0 11:0.857143 12:0.4 13:0 14:0.896552 15:0.822254 16:0.908655 17:0.868092 18:0.949981 19:0.945775 20:0.249999 21:0.096709 
-20 1:0 2:1 3:0 4:0 5:1 6:0 7:1 8:0.75 9:0.666667 10:0.5 11:0.75 12:0.666667 13:0.5 14:0.833333 15:0.703562 16:0.650006 17:0.952895 18:0.910026 19:0.853588 20:0 21:0.029898 
-9.309480286028409 1:0 2:1 3:0 4:0 5:1 6:0 7:1 8:0.5 9:0 10:1 11:0.5 12:0 13:1 14:0.666667 15:0.558748 16:0.560489 17:0.797716 18:0.844462 19:0.789712 20:0 21:0.128899 
20 1:0 2:1 3:0 4:0 5:1 6:0 7:1 8:0.5 9:0 10:1 11:0.5 12:0 13:1 14:0.666667 15:0.595953 16:0.520002 17:0.811877 18:0.826237 19:0.715842 20:0 21:0.045485 
-20 1:0 2:1 3:0 4:0 5:1 6:0 7:1 8:0.8 9:0.75 10:0.666667 11:0.8 12:0.75 13:0.666667 14:0.9 15:0.774578 16:0.802672 17:0.93678 18:0.941465 19:0.854428 20:0 21:0.007951 
-20 1:0 2:1 3:0 4:0 5:1 6:0 7:1 8:0.666667 9:0.5 10:0 11:0.666667 12:0.5 13:0 14:0.75 15:0.734902 16:0.693328 17:0.749589 18:0.796754 19:0.766463 20:0 21:0.156094 
9.129708610904482 1:0 2:1 3:0 4:0 5:1 6:0 7:1 8:0.5 9:0.333333 10:0 11:0.5 12:0.333333 13:0 14:0.598808 15:0.641516 16:0.443822 17:0.642947 18:0.562198 19:0.47256 20:0 21:0.134934 
-20 1:0 2:1 3:0 4:0 5:1 6:0 7:1 8:0.857143 9:0.666667 10:0.4 11:0.857143 12:0.666667 13:0.4 14:0.95082 15:0.793127 16:0.841587 17:0.963946 18:0.929136 19:0.8761 20:0.25 21:0.309717 
-20 1:0 2:1 3:0 4:0 5:1 6:0 7:1 8:0.571429 9:0 10:0 11:0.571429 12:0 13:0 14:0.717949 15:0.741906 16:0.621426 17:0.828775 18:0.856573 19:0.843416 20:0.249999 21:0.27974 
-20 1:0 2:1 3:0 4:0 5:1 6:0 7:1 8:0.666667 9:0 10:0 11:1 12:1 13:1 14:1 15:0.619272 16:1 17:1 18:1 19:1 20:0 21:0.066166 
-20 1:0 2:1 3:0 4:0 5:1 6:0 7:1 8:0.666667 9:0.5 10:0 11:0.666667 12:0.5 13:0 14:0.777778 15:0.759002 16:0.734715 17:0.794165 18:0.87935 19:0.859823 20:0 21:0.034104 
11.69008128691119 1:0 2:1 3:0 4:0 5:1 6:0 7:1 8:0.333333 9:0 10:0 11:0.666667 12:0 13:0 14:1 15:0.395291 16:0.668383 17:0.822797 18:0.848664 19:0.833033 20:0 21:0.136117 
-20 1:0 2:1 3:0 4:0 5:1 6:0 7:1 8:0.666667 9:0.5 10:0 11:0.666667 12:0.5 13:0 14:0.833333 15:0.826181 16:0.741719 17:0.835155 18:0.908778 19:0.857619 20:0 21:0.032016 
-20 1:0 2:1 3:0 4:0 5:1 6:0 7:1 8:0.333333 9:0 10:0 11:0.333333 12:0 13:0 14:0.611111 15:0.594857 16:0.393044 17:0.680238 18:0.739157 19:0.603481 20:0 21:0.092051 
-20 1:0 2:1 3:0 4:0 5:1 6:0 7:1 8:0.666667 9:0.5 10:0 11:0.666667 12:0.5 13:0 14:0.777778 15:0.704086 16:0.704864 17:0.679465 18:0.756178 19:0.742767 20:0 21:0.148282 
-20 1:0 2:1 3:0 4:0 5:1 6:0 7:1 8:0.666667 9:0.5 10:0 11:0.666667 12:0.5 13:0 14:0.780142 15:0.731858 16:0.575882 17:0.939328 18:0.904077 19:0.767864 20:0 21:0.00511 
20 1:0 2:1 3:0 4:0 5:1 6:0 7:1 8:0.666667 9:0.285714 10:0 11:0.666667 12:0.285714 13:0 14:0.902439 15:0.721339 16:0.642331 17:0.919939 18:0.934828 19:0.866002 20:0.2 21:0.166009 
20 1:0 2:1 3:0 4:0 5:1 6:0 7:1 8:0.666667 9:0.285714 10:0 11:0.666667 12:0.285714 13:0 14:0.727337 15:0.794775 16:0.673678 17:0.728369 18:0.741843 19:0.838903 20:0.2 21:0.158512 
20 1:0 2:1 3:0 4:0 5:1 6:0 7:1 8:0.571429 9:0.4 10:0 11:0.571429 12:0.4 13:0 14:0.681818 15:0.709208 16:0.569593 17:0.719969 18:0.723363 19:0.744491 20:0.249999 21:0.067922 
20 1:0 2:1 3:0 4:0 5:1 6:0 7:1 8:0.666667 9:0 10:0 11:1 12:1 13:1 14:1 15:0.6628 16:1 17:1 18:1 19:1 20:0 21:0.104727 
20 1:0 2:1 3:0 4:0 5:1 6:0 7:1 8:0.727273 9:0.444444 10:0 11:0.727273 12:0.444444 13:0 14:0.780919 15:0.81669 16:0.752773 17:0.842203 18:0.878822 19:0.886707 20:0.166666 21:0.028156 
-20 1:0 2:1 3:0 4:0 5:1 6:0 7:1 8:0.6 9:0.25 10:0 11:0.6 12:0.25 13:0 14:0.826782 15:0.615605 16:0.50253 17:0.801887 18:0.715713 19:0.751083 20:0 21:0.004055 
-20 1:0 2:1 3:0 4:0 5:1 6:0 7:1 8:0.333333 9:0 10:0 11:0.333333 12:0 13:0 14:0.491525 15:0.623882 16:0.322436 17:0.564696 18:0.527168 19:0.398506 20:0 21:0.185623 
-20 1:0 2:1 3:0 4:0 5:1 6:0 7:1 8:0.5 9:0 10:1 11:0.5 12:0 13:1 14:0.591549 15:0.475734 16:0.451304 17:0.63161 18:0.55817 19:0.443964 20:0 21:0.004965 
-20 1:0 2:1 3:0 4:0 5:1 6:0 7:1 8:0.6 9:0.25 10:0 11:0.6 12:0.25 13:0 14:0.669983 15:0.617645 16:0.527261 17:0.806778 18:0.788837 19:0.539179 20:0 21:0.036885 
20 1:0 2:1 3:0 4:0 5:1 6:0 7:1 8:0.857143 9:0.8 10:0.666667 11:0.857143 12:0.8 13:0.666667 14:0.909091 15:0.88049 16:0.892423 17:0.882933 18:0.932774 19:0.934902 20:0.249999 21:0.092066 
20 1:0 2:1 3:0 4:0 5:1 6:0 7:1 8:0.333333 9:0 10:0 11:0.333333 12:0 13:0 14:0.5 15:0.559137 16:0.298509 17:0.537686 18:0.398325 19:0.451834 20:0 21:0.096697 
4.368076192804494 1:0 2:1 3:0 4:0 5:1 6:0 7:1 8:0.571429 9:0.4 10:0 11:0.571429 12:0.4 13:0 14:0.673528 15:0.66142 16:0.533394 17:0.568268 18:0.463303 19:0.556266 20:0.249999 21:0.126905 
1.320278204579798 1:0 2:1 3:0 4:0 5:1 6:0 7:1 8:0.666667 9:0.5 10:0 11:0.666667 12:0.5 13:0 14:0.714286 15:0.735183 16:0.586102 17:0.911744 18:0.866086 19:0.949165 20:0 21:0.012527 
-20 1:0 2:1 3:0 4:0 5:1 6:0 7:1 8:0.285714 9:0 10:0 11:0.571429 12:0 13:0 14:0.765766 15:0.425186 16:0.616131 17:0.6433 18:0.706655 19:0.641423 20:0.249999 21:0.066024 
20 1:0 2:1 3:0 4:0 5:1 6:0 7:1 8:0.5 9:0 10:1 11:0.5 12:0 13:1 14:0.625 15:0.732299 16:0.530307 17:0.653096 18:0.688896 19:0.582079 20:0 21:0.137546 
-20 1:0 2:1 3:0 4:0 5:1 6:0 7:1 8:0.666667 9:0.5 10:0 11:0.666667 12:0.5 13:0 14:0.789474 15:0.658497 16:0.583296 17:0.955909 18:0.937475 19:0.555645 20:0 21:0.054962 
-20 1:0 2:1 3:0 4:0 5:1 6:0 7:1 8:0.727273 9:0.666667 10:0.571429 11:0.727273 12:0.666667 13:0.571429 14:0.818182 15:0.718963 16:0.669191 17:0.90042 18:0.872848 19:0.890192 20:0.166666 21:0.108946 
20 1:0 2:1 3:0 4:0 5:1 6:0 7:1 8:0.666667 9:0.4 10:0.25 11:0.833333 12:0.6 13:0.25 14:0.849673 15:0.678304 16:0.804364 17:0.888561 18:0.84228 19:0.794705 20:0 21:0.056232 
20 1:0 2:1 3:0 4:0 5:1 6:0 7:1 8:0.6 9:0.5 10:0.333333 11:0.6 12:0.5 13:0.333333 14:0.74 15:0.642876 16:0.514604 17:0.860028 18:0.806873 19:0.704774 20:0 21:0.080399 
20 1:0 2:1 3:0 4:0 5:1 6:0 7:1 8:0.444444 9:0 10:0 11:0.444444 12:0 13:0 14:0.562963 15:0.596056 16:0.489751 17:0.777892 18:0.834825 19:0.618032 20:0.2 21:0.074879 
20 1:0 2:1 3:0 4:0 5:1 6:0 7:1 8:0.8 9:0.5 10:0 11:0.8 12:0.5 13:0 14:0.866667 15:0.841091 16:0.815074 17:0.89905 18:0.914795 19:0.880936 20:0 21:0.081781 
20 1:0 2:1 3:0 4:0 5:1 6:0 7:1 8:0.571429 9:0 10:0 11:0.857143 12:0.4 13:0 14:0.857143 15:0.562662 16:0.860692 17:0.889134 18:0.89379 19:0.890687 20:0.249999 21:0.178892 
-20 1:0 2:1 3:0 4:0 5:1 6:0 7:1 8:0.545455 9:0.222222 10:0 11:0.545455 12:0.222222 13:0 14:0.826377 15:0.617169 16:0.478756 17:0.875131 18:0.829017 19:0.702928 20:0.166666 21:0.13559 
-20 1:0 2:1 3:0 4:0 5:1 6:0 7:1 8:0.666667 9:0.5 10:0 11:0.666667 12:0.5 13:0 14:0.777778 15:0.676171 16:0.605208 17:0.668614 18:0.541254 19:0.571683 20:0 21:0.021247 
-20 1:0 2:1 3:0 4:0 5:1 6:0 7:1 8:0.5 9:0 10:1 11:0.5 12:0 13:1 14:0.580645 15:0.624429 16:0.420046 17:0.544058 18:0.400039 19:0.361782 20:0 21:0.068524 
-20 1:0 2:1 3:0 4:0 5:1 6:0 7:1 8:0.5 9:0 10:1 11:0.5 12:0 13:1 14:0.597015 15:0.641132 16:0.438143 17:0.507736 18:0.396789 19:0.402183 20:0 21:0.215596 
20 1:0 2:1 3:0 4:0 5:1 6:0 7:1 8:0.5 9:0 10:1 11:0.5 12:0 13:1 14:0.666667 15:0.649223 16:0.441697 17:0.475844 18:0.358624 19:0.374579 20:0 21:0.157891 
20 1:0 2:1 3:0 4:0 5:1 6:0 7:1 8:0.5 9:0 10:1 11:0.5 12:0 13:1 14:0.6 15:0.634528 16:0.417471 17:0.499737 18:0.339714 19:0.359318 20:0 21:0.022894 
20 1:0 2:1 3:0 4:0 5:1 6:0 7:1 8:0.5 9:0 10:1 11:0.5 12:0 13:1 14:0.625 15:0.651783 16:0.435342 17:0.469348 18:0.3395 19:0.368996 20:0 21:0.13816 
-20 1:0 2:1 3:0 4:0 5:1 6:0 7:1 8:0.5 9:0 10:1 11:0.5 12:0 13:1 14:0.6 15:0.634528 16:0.417471 17:0.499737 18:0.339714 19:0.359318 20:0 21:0.022894 
-20 1:0 2:1 3:0 4:0 5:1 6:0 7:1 8:0.666667 9:0.4 10:0 11:0.666667 12:0.4 13:0 14:0.825215 15:0.71117 16:0.684036 17:0.845606 18:0.883031 19:0.821271 20:0.285714 21:0.105438 
-20 1:0 2:1 3:0 4:0 5:1 6:0 7:1 8:0.333333 9:0 10:0 11:0.333333 12:0 13:0 14:0.492958 15:0.493865 16:0.260799 17:0.896096 18:0.874023 19:0.637161 20:0 21:0.031661 
-20 1:0 2:1 3:0 4:0 5:1 6:0 7:1 8:0.333333 9:0 10:0 11:0.333333 12:0 13:0 14:0.777778 15:0.507885 16:0.274711 17:0.764851 18:0.760278 19:0.750882 20:0 21:0.130162 
-20 1:0 2:1 3:0 4:0 5:1 6:0 7:1 8:0.333333 9:0 10:0 11:0.333333 12:0 13:0 14:0.513514 15:0.438825 16:0.268061 17:0.8936 18:0.873003 19:0.643532 20:0 21:0.031729 
-20 1:0 2:1 3:0 4:0 5:1 6:0 7:1 8:0.333333 9:0 10:0 11:0.333333 12:0 13:0 14:0.492958 15:0.493865 16:0.260799 17:0.896096 18:0.874023 19:0.637161 20:0 21:0.031661 
7.305604344431589 1:0 2:1 3:0 4:0 5:1 6:0 7:1 8:0.666667 9:0.5 10:0 11:1 12:1 13:1 14:1 15:0.577136 16:1 17:1 18:1 19:1 20:0 21:0.129707 
20 1:0 2:1 3:0 4:0 5:1 6:0 7:1 8:0.333333 9:0 10:0 11:0.333333 12:0 13:0 14:0.733333 15:0.462194 16:0.259246 17:0.248632 18:0.115717 19:0.301447 20:0 21:0.087244 
20 1:0 2:1 3:0 4:0 5:1 6:0 7:1 8:0.75 9:0.333333 10:0 11:0.75 12:0.333333 13:0 14:0.808511 15:0.808756 16:0.783044 17:0.909776 18:0.943688 19:0.884295 20:0.399999 21:0.30252 
-20 1:0 2:1 3:0 4:0 5:1 6:0 7:1 8:0.666667 9:0.5 10:0 11:0.666667 12:0.5 13:0 14:0.75 15:0.659255 16:0.575743 17:0.975435 18:0.960238 19:0.940292 20:0 21:0.095308 
20 1:0 2:1 3:0 4:0 5:1 6:0 7:1 8:0.666667 9:0.5 10:0 11:0.666667 12:0.5 13:0 14:0.722222 15:0.651804 16:0.565917 17:0.6834 18:0.483877 19:0.560675 20:0 21:0.063878 
-20 1:0 2:1 3:0 4:0 5:1 6:0 7:1 8:0.333333 9:0 10:0 11:0.333333 12:0 13:0 14:0.582011 15:0.587004 16:0.351757 17:0.668842 18:0.669926 19:0.60886 20:0 21:0.069319 
-20 1:0 2:1 3:0 4:0 5:1 6:0 7:1 8:0.333333 9:0 10:0 11:0.333333 12:0 13:0 14:0.527778 15:0.486694 16:0.368951 17:0.795467 18:0.823021 19:0.891571 20:0 21:0.076531 
-20 1:0 2:1 3:0 4:0 5:1 6:0 7:1 8:0.333333 9:0 10:0 11:0.333333 12:0 13:0 14:0.555556 15:0.590139 16:0.364212 17:0.855233 18:0.898779 19:0.808996 20:0 21:0.082088 
-20 1:0 2:1 3:0 4:0 5:1 6:0 7:1 8:0.666667 9:0.5 10:0 11:0.666667 12:0.5 13:0 14:0.722222 15:0.67474 16:0.627946 17:0.879662 18:0.861678 19:0.891706 20:0 21:0.017685 
-20 1:0 2:1 3:0 4:0 5:1 6:0 7:1 8:0.5 9:0 10:0 11:0.5 12:0 13:0 14:0.6125 15:0.538323 16:0.446275 17:0.542822 18:0.442083 19:0.496267 20:0 21:0.025709 
20 1:0 2:1 3:0 4:0 5:1 6:0 7:1 8:0.5 9:0 10:0 11:0.75 12:0.666667 13:0.5 14:0.875 15:0.427817 16:0.679803 17:0.95905 18:0.930576 19:0.870137 20:0 21:0.157208 
20 1:0 2:1 3:0 4:0 5:1 6:0 7:1 8:0.857143 9:0.8 10:0.666667 11:0.857143 12:0.8 13:0.666667 14:0.888889 15:0.801425 16:0.835026 17:0.903225 18:0.88111 19:0.847921 20:0.249999 21:0.327485 
20 1:0 2:1 3:0 4:0 5:1 6:0 7:1 8:0.666667 9:0.5 10:0 11:0.666667 12:0.5 13:0 14:0.777778 15:0.708232 16:0.711437 17:0.659216 18:0.751576 19:0.77965 20:0 21:0.009685 
-20 1:0 2:1 3:0 4:0 5:1 6:0 7:1 8:0.75 9:0.666667 10:0.5 11:0.75 12:0.666667 13:0.5 14:0.8 15:0.851308 16:0.780586 17:0.841994 18:0.886757 19:0.824661 20:0.399999 21:0.274423 
-20 1:0 2:1 3:0 4:0 5:1 6:0 7:1 8:0.75 9:0.666667 10:0.5 11:0.75 12:0.666667 13:0.5 14:1 15:0.743007 16:0.660672 17:0.911002 18:0.85906 19:0.910521 20:0 21:0.033793 
-20 1:0 2:1 3:0 4:0 5:1 6:0 7:1 8:0.571429 9:0 10:0 11:0.571429 12:0 13:0 14:0.682699 15:0.634825 16:0.610798 17:0.760302 18:0.788368 19:0.809793 20:0.249999 21:0.310046 
-20 1:0 2:1 3:0 4:0 5:1 6:0 7:1 8:0.75 9:0.666667 10:0.5 11:0.75 12:0.666667 13:0.5 14:0.8 15:0.851308 16:0.780586 17:0.841994 18:0.886757 19:0.824661 20:0.399999 21:0.274423 
-20 1:0 2:1 3:0 4:0 5:1 6:0 7:1 8:0.5 9:0 10:0 11:0.5 12:0 13:0 14:0.586667 15:0.693401 16:0.499097 17:0.713463 18:0.67887 19:0.58049 20:0.399999 21:0.209196 
9.40470523592035 1:0 2:1 3:0 4:0 5:1 6:0 7:1 8:1 9:1 10:1 11:0.5 12:0 13:1 14:1 15:0.813107 16:0.582922 17:0.827889 18:0.882726 19:0.951325 20:0 21:0.08176 
-20 1:0 2:1 3:0 4:0 5:1 6:0 7:1 8:0.5 9:0 10:1 11:0.5 12:0 13:1 14:0.645161 15:0.620326 16:0.43581 17:0.482694 18:0.352166 19:0.360393 20:0 21:0.096356 
1.693341421137217 1:0 2:1 3:0 4:0 5:1 6:0 7:1 8:0 9:0 10:1 11:0 12:0 13:1 14:0.266667 15:0.368441 16:0 17:0.295621 18:0.19816 19:0.143317 20:0 21:0.14951 
-16.39438133010135 1:0 2:1 3:0 4:0.693147 5:1 6:0 7:1 8:0.5 9:0 10:1 11:0.5 12:0 13:1 14:0.6 15:0.699194 16:0.515902 17:0.529069 18:0.565897 19:0.640682 20:0 21:0.101911 
-20 1:0 2:1 3:0 4:0 5:1 6:0 7:1 8:0.6 9:0.25 10:0 11:0.6 12:0.25 13:0 14:0.8 15:0.703931 16:0.598046 17:0.7523 18:0.745532 19:0.580064 20:0 21:0.129523 
17.3714035866337 1:0 2:1 3:0 4:0 5:1 6:0 7:1 8:0.333333 9:0 10:0 11:1 12:1 13:1 14:1 15:0.319809 16:1 17:1 18:1 19:1 20:0 21:0.050027 
-20 1:0 2:1 3:0 4:0 5:1 6:0 7:1 8:0.666667 9:0 10:0 11:0.666667 12:0 13:0 14:0.702606 15:0.66687 16:0.602614 17:0.692917 18:0.575794 19:0.543781 20:0 21:0.391487 
20 1:0 2:1 3:0 4:0 5:1 6:0 7:1 8:0.666667 9:0.5 10:0 11:0.666667 12:0.5 13:0 14:0.75 15:0.761886 16:0.61878 17:0.885894 18:0.846546 19:0.858422 20:0 21:0.211119 
20 1:0 2:1 3:0 4:0 5:1 6:0 7:1 8:0.333333 9:0 10:0 11:0.333333 12:0 13:0 14:0.493883 15:0.49814 16:0.245009 17:0.385168 18:0.239419 19:0.192161 20:0 21:0.255055 
20 1:0 2:1 3:0 4:0 5:1 6:0 7:1 8:0.571429 9:0 10:0 11:0.571429 12:0 13:0 14:0.705691 15:0.706016 16:0.566371 17:0.677996 18:0.66088 19:0.601464 20:0.249999 21:0.178607 
-20 1:0 2:1 3:0 4:0 5:1 6:0 7:1 8:0.666667 9:0.5 10:0 11:0.666667 12:0.5 13:0 14:0.780142 15:0.676331 16:0.606778 17:0.858442 18:0.809158 19:0.91084 20:0 21:0.147912 
-20 1:0 2:1 3:0 4:0 5:1 6:0 7:1 8:0.333333 9:0 10:0 11:0.333333 12:0 13:0 14:0.5 15:0.557077 16:0.379115 17:0.712216 18:0.731784 19:0.639158 20:0 21:0.127433 
-20 1:0 2:1 3:0 4:0 5:1 6:0 7:1 8:0.666667 9:0.5 10:0 11:0.666667 12:0.5 13:0 14:0.833333 15:0.703685 16:0.70425 17:0.850215 18:0.88134 19:0.78594 20:0 21:0.085448 
20 1:0 2:1 3:0 4:0 5:1 6:0 7:1 8:0.75 9:0.666667 10:0.5 11:0.75 12:0.666667 13:0.5 14:0.787879 15:0.789568 16:0.77792 17:0.864534 18:0.884564 19:0.829708 20:0.399999 21:0.307565 
20 1:0 2:1 3:0 4:0 5:1 6:0 7:1 8:0.666667 9:0.5 10:0 11:0.666667 12:0.5 13:0 14:0.777778 15:0.701947 16:0.701488 17:0.67624 18:0.746945 19:0.752937 20:0 21:0.075939 
20 1:0 2:1 3:0 4:0 5:1 6:0 7:1 8:0.666667 9:0 10:0 11:0.666667 12:0 13:0 14:0.752066 15:0.689823 16:0.581355 17:0.828981 18:0.724562 19:0.628242 20:0.2 21:0.21383 
-20 1:0 2:1 3:0 4:0 5:1 6:0 7:1 8:0.6 9:0.25 10:0 11:0.6 12:0.25 13:0 14:0.85 15:0.542552 16:0.513651 17:0.869423 18:0.83899 19:0.779709 20:0 21:0.112683 
20 1:0 2:1 3:0 4:0 5:1 6:0 7:1 8:0.615385 9:0.363636 10:0.222222 11:0.769231 12:0.545455 13:0.222222 14:0.827957 15:0.690847 16:0.786815 17:0.853041 18:0.881438 19:0.866922 20:0.142857 21:0.081287 
-20 1:0 2:1 3:0 4:0 5:1 6:0 7:1 8:0.666667 9:0 10:0 11:1 12:1 13:1 14:1 15:0.61773 16:1 17:1 18:1 19:1 20:0 21:0.00778 
-20 1:0 2:1 3:0 4:0 5:1 6:0 7:1 8:0.666667 9:0.5 10:0 11:0.666667 12:0.5 13:0 14:0.777778 15:0.700842 16:0.661277 17:0.811609 18:0.809 19:0.73167 20:0 21:0.094716 
-20 1:0 2:1 3:0 4:0 5:1 6:0 7:1 8:0.5 9:0 10:1 11:0.5 12:0 13:1 14:0.585366 15:0.622632 16:0.415839 17:0.632274 18:0.510994 19:0.409095 20:0 21:0.30859 
20 1:0 2:1 3:0 4:0 5:1 6:0 7:1 8:0.75 9:0.333333 10:0 11:0.75 12:0.333333 13:0 14:0.842593 15:0.806145 16:0.720865 17:0.864533 18:0.840639 19:0.833605 20:0 21:0.035114 
-20 1:0 2:1 3:0 4:0 5:1 6:0 7:1 8:0.571429 9:0.4 10:0 11:0.571429 12:0.4 13:0 14:0.666667 15:0.703039 16:0.557383 17:0.876868 18:0.907288 19:0.892909 20:0.249999 21:0.135096 
-20 1:0 2:1 3:0 4:0 5:1 6:0 7:1 8:0.333333 9:0 10:0 11:0.333333 12:0 13:0 14:0.5 15:0.542421 16:0.326103 17:0.610069 18:0.591587 19:0.44467 20:0 21:0.136653 
-20 1:0 2:1 3:0 4:0 5:1 6:0 7:1 8:0.333333 9:0 10:0 11:0.333333 12:0 13:0 14:0.519311 15:0.485345 16:0.256164 17:0.488238 18:0.421277 19:0.757831 20:0 21:0.203571 
-20 1:0 2:1 3:0 4:0 5:1 6:0 7:1 8:0.333333 9:0 10:0 11:0.333333 12:0 13:0 14:0.577626 15:0.561467 16:0.322972 17:0.443384 18:0.399313 19:0.41173 20:0 21:0.032835 
-20 1:0 2:1 3:0 4:0 5:1 6:0 7:1 8:0.666667 9:0.5 10:0 11:0.666667 12:0.5 13:0 14:0.733333 15:0.70046 16:0.573478 17:0.747233 18:0.599535 19:0.544319 20:0 21:0.002755 
-20 1:0 2:1 3:0 4:0 5:1 6:0 7:1 8:0.666667 9:0.5 10:0 11:0.666667 12:0.5 13:0 14:0.780142 15:0.724051 16:0.559795 17:0.76153 18:0.602858 19:0.895697 20:0 21:0.022403 
-20 1:0 2:1 3:0 4:0 5:1 6:0 7:1 8:0.4 9:0 10:1 11:0.4 12:0 13:1 14:0.589147 15:0.58962 16:0.462441 17:0.642477 18:0.720608 19:0.6548 20:0.333332 21:0.169155 
19.94638381602839 1:0 2:1 3:0 4:0 5:1 6:0 7:1 8:0.5 9:0 10:1 11:0.5 12:0 13:1 14:0.625 15:0.647346 16:0.438278 17:0.559111 18:0.44499 19:0.363815 20:0 21:0.140992 
20 1:0 2:1 3:0 4:0 5:1 6:0 7:1 8:0.5 9:0 10:1 11:0.5 12:0 13:1 14:0.625 15:0.647346 16:0.438278 17:0.559111 18:0.44499 19:0.363815 20:0 21:0.140992 
3.960190499095504 1:0 2:1 3:0 4:0 5:1 6:0 7:1 8:0 9:0 10:1 11:0 12:0 13:1 14:0.266667 15:0.367779 16:0 17:0.351895 18:0.291146 19:0.211715 20:0 21:0.199041 
20 1:0 2:1 3:0 4:0 5:1 6:0 7:1 8:0.5 9:0 10:1 11:0.5 12:0 13:1 14:0.625 15:0.654052 16:0.454715 17:0.454883 18:0.363864 19:0.464286 20:0 21:0.200926 
-20 1:0 2:1 3:0 4:0 5:1 6:0 7:1 8:0.666667 9:0.285714 10:0 11:0.666667 12:0.285714 13:0 14:0.862319 15:0.745231 16:0.734861 17:0.787157 18:0.861254 19:0.809218 20:0.2 21:0.212627 
-20 1:0 2:1 3:0 4:0 5:1 6:0 7:1 8:0.75 9:0.666667 10:0.5 11:0.75 12:0.666667 13:0.5 14:0.828125 15:0.81663 16:0.792773 17:0.853859 18:0.905378 19:0.879112 20:0.399999 21:0.26816 
-20 1:0 2:1 3:0 4:0 5:1 6:0 7:1 8:0.857143 9:0.8 10:0.666667 11:0.857143 12:0.8 13:0.666667 14:0.877193 15:0.814827 16:0.848156 17:0.946393 18:0.948177 19:0.886315 20:0.249999 21:0.2757 
-20 1:0 2:1 3:0 4:0 5:1 6:0 7:1 8:0.666667 9:0.285714 10:0 11:0.666667 12:0.285714 13:0 14:0.731222 15:0.728099 16:0.646874 17:0.818994 18:0.834851 19:0.910298 20:0.2 21:0.004696 
20 1:0 2:1 3:0 4:0 5:1 6:0 7:1 8:0.571429 9:0 10:0 11:0.571429 12:0 13:0 14:0.705691 15:0.664109 16:0.535297 17:0.670315 18:0.650706 19:0.585119 20:0.249999 21:0.233736 
20 1:0 2:1 3:0 4:0 5:1 6:0 7:1 8:0.571429 9:0 10:0 11:0.857143 12:0.4 13:0 14:0.909091 15:0.616703 16:0.90309 17:0.885184 18:0.946438 19:0.943416 20:0.249999 21:0.077255 
20 1:0 2:1 3:0 4:0 5:1 6:0 7:1 8:0 9:0 10:0 11:0 12:0 13:0 14:0.234535 15:0.344003 16:0 17:0.119969 18:0.044425 19:0.102381 20:0 21:0.249269 
20 1:0 2:1 3:0 4:0 5:1 6:0 7:1 8:0.666667 9:0.5 10:0 11:0.666667 12:0.5 13:0 14:0.722222 15:0.669048 16:0.647138 17:0.689208 18:0.67225 19:0.911119 20:0 21:0.110058 
-1.17449909599338 1:0 2:1 3:0 4:0 5:1 6:0 7:1 8:0.8 9:0.666667 10:1 11:0.8 12:0.666667 13:1 14:0.846154 15:0.731859 16:0.760175 17:0.833141 18:0.776073 19:0.752219 20:0.333332 21:0.412339 
-20 1:0 2:1 3:0 4:0 5:1 6:0 7:1 8:0 9:0 10:1 11:0 12:0 13:1 14:0.266667 15:0.353455 16:0 17:0.434095 18:0.382757 19:0.35356 20:0 21:0.070704 
20 1:0 2:1 3:0 4:0 5:1 6:0 7:1 8:0.5 9:0 10:1 11:0.5 12:0 13:1 14:0.625 15:0.590562 16:0.394808 17:0.49644 18:0.313407 19:0.37068 20:0 21:0.466692 
-20 1:0 2:1 3:0 4:0 5:1 6:0 7:1 8:0.571429 9:0 10:0 11:0.857143 12:0.4 13:0 14:0.857143 15:0.576167 16:0.900546 17:0.902971 18:0.947571 19:0.944267 20:0.249999 21:0.015867 
-20 1:0 2:1 3:0 4:0 5:1 6:0 7:1 8:0.571429 9:0 10:0 11:0.571429 12:0 13:0 14:0.642857 15:0.676902 16:0.609884 17:0.629145 18:0.698115 19:0.606106 20:0.249999 21:0.172627 
20 1:0 2:1 3:0 4:0 5:1 6:0 7:1 8:0.888889 9:0.857143 10:0.8 11:0.888889 12:0.857143 13:0.8 14:0.909091 15:0.828725 16:0.890496 17:0.931304 18:0.938546 19:0.916978 20:0.2 21:0.221421 
20 1:0 2:1 3:0 4:0 5:1 6:0 7:1 8:0.333333 9:0 10:0 11:0.666667 12:0.5 13:0 14:0.804598 15:0.421235 16:0.626471 17:0.87704 18:0.857045 19:0.816776 20:0 21:0.155507 
-20 1:0 2:1 3:0 4:0 5:1 6:0 7:1 8:0.666667 9:0.5 10:0 11:0.666667 12:0.5 13:0 14:0.780142 15:0.659429 16:0.575882 17:0.939328 18:0.904077 19:0.767864 20:0 21:0.00511 
-20 1:0 2:1 3:0 4:0 5:1 6:0 7:1 8:0.571429 9:0.4 10:0 11:0.571429 12:0.4 13:0 14:0.654927 15:0.663528 16:0.54648 17:0.512743 18:0.468585 19:0.512833 20:0.249999 21:0.264377 
-20 1:0 2:1 3:0 4:0 5:1 6:0 7:1 8:0.333333 9:0 10:0 11:0.666667 12:0.5 13:0 14:0.777778 15:0.476667 16:0.716098 17:0.894244 18:0.925284 19:0.891659 20:0 21:0.028473 
-20 1:0 2:1 3:0 4:0 5:1 6:0 7:1 8:0.5 9:0 10:1 11:0.5 12:0 13:1 14:0.625 15:0.633249 16:0.464375 17:0.522509 18:0.454215 19:0.435916 20:0 21:0.090805 
20 1:0 2:1 3:0 4:0 5:1 6:0 7:1 8:0.5 9:0 10:0 11:0.5 12:0 13:0 14:0.698163 15:0.557526 16:0.500322 17:0.773936 18:0.782629 19:0.629193 20:0.399999 21:0.238371 
20 1:0 2:1 3:0 4:0 5:1 6:0 7:1 8:0.5 9:0.333333 10:0 11:0.5 12:0.333333 13:0 14:0.6875 15:0.627135 16:0.533053 17:0.655193 18:0.677696 19:0.676554 20:0 21:0.090697 
-20 1:0 2:1 3:0 4:0 5:1 6:0 7:1 8:0.333333 9:0 10:0 11:0.333333 12:0 13:0 14:0.511111 15:0.593599 16:0.379155 17:0.727087 18:0.758519 19:0.772651 20:0 21:0.02563 
-20 1:0 2:1 3:0 4:0 5:1 6:0 7:1 8:0.666667 9:0.5 10:0 11:0.666667 12:0.5 13:0 14:0.722222 15:0.67382 16:0.603331 17:0.756746 18:0.660053 19:0.565967 20:0 21:0.017695 
-20 1:0 2:1 3:0 4:0 5:1 6:0 7:1 8:0.333333 9:0 10:0 11:0.333333 12:0 13:0 14:0.504505 15:0.563136 16:0.329816 17:0.58574 18:0.585389 19:0.46612 20:0 21:0.172134 
-20 1:0 2:1 3:0 4:0 5:1 6:0 7:1 8:0.666667 9:0.5 10:0 11:0.666667 12:0.5 13:0 14:0.70132 15:0.585253 16:0.57836 17:0.722187 18:0.561323 19:0.51696 20:0 21:0.03891 
20 1:0 2:1 3:0 4:0 5:1 6:0 7:1 8:0.571429 9:0 10:0 11:0.571429 12:0 13:0 14:0.590909 15:0.519219 16:0.493925 17:0.740949 18:0.739329 19:0.591052 20:0.249999 21:0.412618 
13.40442415083577 1:0 2:1 3:0 4:0 5:1 6:0 7:1 8:0.333333 9:0 10:0 11:0.333333 12:0 13:0 14:0.5 15:0.53748 16:0.32538 17:0.400061 18:0.372037 19:0.33001 20:0 21:0.005083 
-20 1:0 2:1 3:0 4:0 5:1 6:0 7:1 8:0.75 9:0.666667 10:0.5 11:0.75 12:0.666667 13:0.5 14:0.8 15:0.760288 16:0.786621 17:0.826227 18:0.88075 19:0.828944 20:0.399999 21:0.278223 
-20 1:0 2:1 3:0 4:0 5:1 6:0 7:1 8:0.8 9:0.5 10:0.333333 11:0.8 12:0.5 13:0.333333 14:0.892308 15:0.737313 16:0.795257 17:0.865771 18:0.851953 19:0.841305 20:0.333333 21:0.346728 
20 1:0 2:1 3:0 4:0 5:1 6:0 7:1 8:0.8 9:0.666667 10:1 11:0.8 12:0.666667 13:1 14:0.833333 15:0.712067 16:0.796297 17:0.885281 18:0.890163 19:0.917413 20:0.333332 21:0.328559 
-20 1:0 2:1 3:0 4:0 5:1 6:0 7:1 8:0.666667 9:0 10:0 11:0.666667 12:0 13:0 14:0.833333 15:0.737437 16:0.709786 17:0.750015 18:0.810998 19:0.765704 20:0 21:0.128691 
-20 1:0 2:1 3:0 4:0 5:1 6:0 7:1 8:0.333333 9:0 10:0 11:0.666667 12:0.5 13:0 14:0.777778 15:0.425616 16:0.721564 17:0.86547 18:0.906931 19:0.888751 20:0 21:0.06804 
20 1:0 2:1 3:0 4:0 5:1 6:0 7:1 8:0.8 9:0.5 10:0 11:0.8 12:0.5 13:0 14:0.866667 15:0.610533 16:0.784746 17:0.948646 18:0.9419 19:0.857312 20:0 21:0.000425 
20 1:0 2:1 3:0 4:0 5:1 6:0 7:1 8:0.666667 9:0.285714 10:0 11:0.666667 12:0.285714 13:0 14:0.711111 15:0.637477 16:0.685202 17:0.832606 18:0.841589 19:0.743056 20:0.2 21:0.107624 
20 1:0 2:1 3:0 4:0 5:1 6:0 7:1 8:0.444444 9:0.285714 10:0 11:0.444444 12:0.285714 13:0 14:0.849673 15:0.565804 16:0.46548 17:0.598964 18:0.649174 19:0.561402 20:0.2 21:0.054259 
-20 1:0 2:1 3:0 4:0 5:1 6:0 7:1 8:0.571429 9:0 10:0 11:0.571429 12:0 13:0 14:0.714286 15:0.608047 16:0.639443 17:0.615836 18:0.733631 19:0.713907 20:0.249999 21:0.041376 
20 1:0 2:1 3:0 4:0 5:1 6:0 7:1 8:0.666667 9:0.5 10:0 11:0.666667 12:0.5 13:0 14:0.833333 15:0.705776 16:0.70748 17:0.828567 18:0.870739 19:0.784595 20:0 21:0.057861 
20 1:0 2:1 3:0 4:0 5:1 6:0 7:1 8:0.333333 9:0 10:0 11:0.666667 12:0 13:0 14:0.833333 15:0.300227 16:0.656021 17:0.8282 18:0.847776 19:0.678615 20:0 21:0.171541 
20 1:0 2:1 3:0 4:0 5:1 6:0 7:1 8:0.333333 9:0 10:0 11:0.666667 12:0.5 13:0 14:1 15:0.421018 16:0.737021 17:0.871689 18:0.926574 19:0.886565 20:0 21:0.048015 
-20 1:0 2:1 3:0 4:0 5:1 6:0 7:1 8:0.333333 9:0 10:0 11:0.333333 12:0 13:0 14:0.75 15:0.508137 16:0.274924 17:0.66406 18:0.616443 19:0.6975 20:0 21:0.160072 
-20 1:0 2:1 3:0 4:0 5:1 6:0 7:1 8:0.5 9:0 10:0 11:0.5 12:0 13:0 14:0.614407 15:0.554468 16:0.426604 17:0.787144 18:0.706707 19:0.528415 20:0 21:0.149229 
20 1:0 2:1 3:0 4:0 5:1 6:0 7:1 8:0.333333 9:0 10:0 11:0.333333 12:0 13:0 14:0.611111 15:0.426914 16:0.283807 17:0.637612 18:0.632885 19:0.574578 20:0 21:0.101147 
-20 1:0 2:1 3:0 4:0 5:1 6:0 7:1 8:0.857143 9:0.4 10:0 11:0.857143 12:0.4 13:0 14:0.896552 15:0.693841 16:0.844519 17:0.896006 18:0.886802 19:0.883935 20:0.249999 21:0.309235 
20 1:0 2:1 3:0 4:0 5:1 6:0 7:1 8:0.5 9:0 10:0 11:0.5 12:0 13:0 14:0.765217 15:0.577003 16:0.499061 17:0.604008 18:0.629011 19:0.701232 20:0.399999 21:0.450534 
20 1:0 2:1 3:0 4:0 5:1 6:0 7:1 8:0.571429 9:0 10:0 11:0.571429 12:0 13:0 14:0.666667 15:0.671827 16:0.611126 17:0.74714 18:0.827896 19:0.822181 20:0.249999 21:0.295577 
20 1:0 2:1 3:0 4:0 5:1 6:0 7:1 8:0.727273 9:0.666667 10:0.571429 11:0.727273 12:0.666667 13:0.571429 14:0.842365 15:0.704921 16:0.677857 17:0.83135 18:0.759023 19:0.763107 20:0.166666 21:0.119839 
3.811683008766482 1:0 2:1 3:0 4:0 5:1 6:0 7:1 8:0.615385 9:0.545455 10:0.444444 11:0.769231 12:0.545455 13:0.444444 14:0.827957 15:0.593622 16:0.810269 17:0.822588 18:0.889769 19:0.885011 20:0.142857 21:0.085431 
20 1:0 2:1 3:0 4:0 5:1 6:0 7:1 8:0.75 9:0.333333 10:0 11:0.75 12:0.333333 13:0 14:0.875 15:0.639762 16:0.707518 17:0.888244 18:0.858035 19:0.781355 20:0 21:0.207442 
-20 1:0 2:1 3:0 4:0 5:1 6:0 7:1 8:0.333333 9:0 10:0 11:0.333333 12:0 13:0 14:0.506088 15:0.52411 16:0.291791 17:0.306909 18:0.232959 19:0.251008 20:0 21:0.021697 
-20 1:0 2:1 3:0 4:0 5:1 6:0 7:1 8:0.333333 9:0 10:0 11:0.333333 12:0 13:0 14:0.561056 15:0.510606 16:0.392623 17:0.410999 18:0.493868 19:0.566289 20:0 21:0.191242 
-20 1:0 2:1 3:0 4:0 5:1 6:0 7:1 8:0.4 9:0.25 10:0 11:0.6 12:0.5 13:0.333333 14:0.659394 15:0.488062 16:0.661022 17:0.753401 18:0.808517 19:0.741986 20:0 21:0.020203 
20 1:0 2:1 3:0 4:0 5:1 6:0 7:1 8:0.444444 9:0 10:0 11:0.666667 12:0.285714 13:0 14:0.777778 15:0.458711 16:0.69789 17:0.725751 18:0.780655 19:0.778132 20:0.2 21:0.119937 
-20 1:0 2:1 3:0 4:0 5:1 6:0 7:1 8:0.333333 9:0 10:0 11:0.333333 12:0 13:0 14:0.454545 15:0.35937 16:0.259292 17:0.295167 18:0.182409 19:0.17022 20:0 21:0.216893 
-20 1:0 2:1 3:0 4:0 5:1 6:0 7:1 8:0.5 9:0 10:0 11:0.5 12:0 13:0 14:0.79646 15:0.660365 16:0.601501 17:0.778663 18:0.872931 19:0.79924 20:0.285714 21:0.110672 
-20 1:0 2:1 3:0 4:0 5:1 6:0 7:1 8:0.4 9:0 10:0 11:0.4 12:0 13:0 14:0.562249 15:0.527604 16:0.403547 17:0.576728 18:0.596531 19:0.475352 20:0.333333 21:0.189811 
20 1:0 2:1 3:0 4:0 5:1 6:0 7:1 8:0.444444 9:0.285714 10:0 11:0.444444 12:0.285714 13:0 14:0.570182 15:0.542686 16:0.403025 17:0.646474 18:0.765097 19:0.673552 20:0.2 21:0.240063 
20 1:0 2:1 3:0 4:0 5:1 6:0 7:1 8:0.666667 9:0.5 10:0 11:0.666667 12:0.5 13:0 14:0.777778 15:0.662117 16:0.596277 17:0.718734 18:0.590657 19:0.655331 20:0 21:0.243128 
-20 1:0 2:1 3:0 4:0 5:1 6:0 7:1 8:0.571429 9:0 10:0 11:0.571429 12:0 13:0 14:0.705882 15:0.592978 16:0.477285 17:0.651916 18:0.489225 19:0.551041 20:0.249999 21:0.304682 
-20 1:0 2:1 3:0 4:0 5:1 6:0 7:1 8:0.571429 9:0.4 10:0 11:0.571429 12:0.4 13:0 14:0.628571 15:0.5773 16:0.516404 17:0.709169 18:0.599023 19:0.521432 20:0.249999 21:0.096789 
-20 1:0 2:1 3:0 4:0 5:1 6:0 7:1 8:0.333333 9:0 10:0 11:0.333333 12:0 13:0 14:0.733333 15:0.489133 16:0.256114 17:0.658802 18:0.617534 19:0.6464 20:0 21:0.277293 
-20 1:0 2:1 3:0 4:0 5:1 6:0 7:1 8:0.571429 9:0.4 10:0 11:0.571429 12:0.4 13:0 14:0.662651 15:0.649072 16:0.518352 17:0.845845 18:0.856596 19:0.723587 20:0.249999 21:0.074522 
20 1:0 2:1 3:0 4:0 5:1 6:0 7:1 8:0.666667 9:0.285714 10:0 11:0.666667 12:0.285714 13:0 14:0.728173 15:0.725682 16:0.674161 17:0.731635 18:0.750059 19:0.666836 20:0.2 21:0.202677 
-20 1:0 2:1 3:0 4:0 5:1 6:0 7:1 8:0.333333 9:0 10:0 11:0.333333 12:0 13:0 14:0.527778 15:0.404313 16:0.268003 17:0.526661 18:0.384587 19:0.338647 20:0 21:0.043489 
-20 1:0 2:1 3:0 4:0 5:1 6:0 7:1 8:0.666667 9:0.285714 10:0 11:0.666667 12:0.285714 13:0 14:0.767123 15:0.669941 16:0.679038 17:0.807746 18:0.827143 19:0.724876 20:0.499999 21:0.419589 
-20 1:0 2:1 3:0 4:0 5:1 6:0 7:1 8:0.285714 9:0 10:0 11:0.285714 12:0 13:0 14:0.46717 15:0.436844 16:0.227876 17:0.689309 18:0.651641 19:0.483055 20:0.249999 21:0.146297 
-20 1:0 2:1 3:0 4:0 5:1 6:0 7:1 8:0.333333 9:0 10:0 11:0.333333 12:0 13:0 14:0.43739 15:0.518457 16:0.473577 17:0.1253 18:0.122727 19:0.612907 20:0 21:0.181902 
-20 1:0 2:1 3:0 4:0 5:1 6:0 7:1 8:0.333333 9:0 10:0 11:0.333333 12:0 13:0 14:0.556656 15:0.465761 16:0.289452 17:0.250765 18:0.17511 19:0.28024 20:0 21:0.274561 
-20 1:0 2:1 3:0 4:0 5:1 6:0 7:1 8:0.333333 9:0 10:0 11:0.333333 12:0 13:0 14:0.527778 15:0.505401 16:0.30091 17:0.846061 18:0.874321 19:0.476802 20:0 21:0.115012 
20 1:0 2:1 3:0 4:0 5:1 6:0 7:1 8:0.285714 9:0 10:0 11:0.285714 12:0 13:0 14:0.404796 15:0.417675 16:0.241269 17:0.3418 18:0.208221 19:0.16155 20:0.249999 21:0.037932 
-20 1:0 2:1 3:0 4:0 5:1 6:0 7:1 8:0.666667 9:0 10:0 11:0.666667 12:0 13:0 14:1 15:0.663176 16:0.650556 17:0.824514 18:0.830825 19:0.802253 20:0 21:0.164626 
-20 1:0 2:1 3:0 4:0 5:1 6:0 7:1 8:0.8 9:0.666667 10:1 11:0.8 12:0.666667 13:1 14:0.83871 15:0.749357 16:0.79639 17:0.804955 18:0.80265 19:0.814055 20:0.333332 21:0.336597 
-20 1:0 2:1 3:0 4:0 5:1 6:0 7:1 8:0.666667 9:0 10:0 11:0.888889 12:0.571429 13:0.4 14:0.898305 15:0.509115 16:0.855159 17:0.930207 18:0.887857 19:0.847892 20:0.2 21:0.350571 
-20 1:0 2:1 3:0 4:0 5:1 6:0 7:1 8:0.333333 9:0 10:0 11:0.666667 12:0.5 13:0 14:0.833333 15:0.524135 16:0.696627 17:0.824726 18:0.855339 19:0.76449 20:0 21:0.053635 
20 1:0 2:1 3:0 4:0 5:1 6:0 7:1 8:0.333333 9:0 10:0 11:0.333333 12:0 13:0 14:0.493883 15:0.531993 16:0.308701 17:0.335993 18:0.303129 19:0.312233 20:0 21:0.182244 
20 1:0 2:1 3:0 4:0 5:1 6:0 7:1 8:0.666667 9:0.5 10:0 11:0.666667 12:0.5 13:0 14:0.748971 15:0.682202 16:0.614547 17:0.878482 18:0.839981 19:0.833696 20:0 21:0.07858 
-20 1:0 2:1 3:0 4:0 5:1 6:0 7:1 8:0.666667 9:0.5 10:0 11:0.666667 12:0.5 13:0 14:0.75 15:0.597767 16:0.712777 17:0.786838 18:0.846274 19:0.795121 20:0 21:0.05778 
-20 1:0 2:1 3:0 4:0 5:1 6:0 7:1 8:0.333333 9:0 10:0 11:0.333333 12:0 13:0 14:0.470501 15:0.415097 16:0.286358 17:0.334045 18:0.246085 19:0.233668 20:0 21:0.092673 
-20 1:0 2:1 3:0 4:0 5:1 6:0 7:1 8:0.6 9:0.25 10:0 11:0.6 12:0.25 13:0 14:0.84497 15:0.705557 16:0.603377 17:0.743863 18:0.748855 19:0.748869 20:0 21:0.251424 
20 1:0 2:1 3:0 4:0 5:1 6:0 7:1 8:0.25 9:0 10:0 11:0.25 12:0 13:0 14:0.48204 15:0.454525 16:0.240629 17:0.612347 18:0.588391 19:0.410831 20:0 21:0.093997 
17.5820980513204 1:0 2:1 3:0 4:0 5:1 6:0 7:1 8:0.333333 9:0 10:0 11:0.333333 12:0 13:0 14:0.464286 15:0.522225 16:0.266269 17:0.475419 18:0.410304 19:0.224756 20:0 21:0.004988 
-20 1:0 2:1 3:0 4:0 5:1 6:0 7:1 8:0.666667 9:0 10:0 11:0.888889 12:0.571429 13:0.4 14:0.918919 15:0.567142 16:0.871751 17:0.934793 18:0.9165 19:0.875964 20:0.2 21:0.186307 
20 1:0 2:1 3:0 4:0 5:1 6:0 7:1 8:0.4 9:0 10:0 11:0.4 12:0 13:0 14:0.830571 15:0.419126 16:0.353302 17:0.797354 18:0.795884 19:0.57856 20:0.333333 21:0.24533 
20 1:0 2:1 3:0 4:0 5:1 6:0 7:1 8:0.666667 9:0 10:0 11:0.666667 12:0 13:0 14:0.741573 15:0.603138 16:0.613053 17:0.723476 18:0.633783 19:0.566761 20:0 21:0.106843 
-20 1:0 2:1 3:0 4:0 5:1 6:0 7:1 8:0.571429 9:0 10:0 11:0.571429 12:0 13:0 14:0.626822 15:0.639286 16:0.725123 17:0.794784 18:0.865859 19:0.823398 20:0.249999 21:0.199879 
-20 1:0 2:1 3:0 4:0 5:1 6:0 7:1 8:0.571429 9:0.4 10:0 11:0.571429 12:0.4 13:0 14:0.678337 15:0.663631 16:0.531537 17:0.621694 18:0.549399 19:0.501768 20:0.249999 21:0.084035 
20 1:0 2:1 3:0 4:0 5:1 6:0 7:1 8:0.444444 9:0.285714 10:0 11:0.444444 12:0.285714 13:0 14:0.705882 15:0.587079 16:0.416329 17:0.628997 18:0.582218 19:0.570355 20:0.2 21:0.13348 
20 1:0 2:1 3:0 4:0 5:1 6:0 7:1 8:0.6 9:0.25 10:0 11:0.8 12:0.5 13:0 14:0.84497 15:0.539895 16:0.737166 17:0.917391 18:0.854041 19:0.895322 20:0 21:0.025204 
-20 1:0 2:1 3:0 4:0 5:1 6:0 7:1 8:0.4 9:0 10:1 11:0.4 12:0 13:1 14:0.633028 15:0.577227 16:0.364856 17:0.52656 18:0.442301 19:0.339832 20:0.333332 21:0.251287 
-20 1:0 2:1 3:0 4:0 5:1 6:0 7:1 8:0.5 9:0 10:1 11:0.5 12:0 13:1 14:0.6 15:0.481244 16:0.47089 17:0.550158 18:0.49086 19:0.517086 20:0 21:0.184562 
20 1:0 2:1 3:0 4:0 5:1 6:0 7:1 8:0.666667 9:0.5 10:0 11:0.666667 12:0.5 13:0 14:0.833333 15:0.650772 16:0.596648 17:0.872403 18:0.821601 19:0.754918 20:0 21:0.193784 
-20 1:0 2:1 3:0 4:0 5:1 6:0 7:1 8:0.333333 9:0 10:0 11:0.333333 12:0 13:0 14:0.485714 15:0.499201 16:0.263824 17:0.558752 18:0.47904 19:0.328008 20:0 21:0.152595 
-20 1:0 2:1 3:0 4:0 5:1 6:0 7:1 8:0.285714 9:0 10:0 11:0.285714 12:0 13:0 14:0.433071 15:0.425546 16:0.289321 17:0.477987 18:0.509372 19:0.360607 20:0.249999 21:0.276173 
-20 1:0 2:1 3:0 4:0 5:1 6:0 7:1 8:0.285714 9:0 10:0 11:0.285714 12:0 13:0 14:0.47913 15:0.348954 16:0.251315 17:0.181802 18:0.111936 19:0.209491 20:0.249999 21:0.271387 
20 1:0 2:1 3:0 4:0 5:1 6:0 7:1 8:0.666667 9:0 10:0 11:0.666667 12:0 13:0 14:0.733333 15:0.594073 16:0.625398 17:0.739966 18:0.717479 19:0.599254 20:0 21:0.011889 
-20 1:0 2:1 3:0 4:0 5:1 6:0 7:1 8:0.666667 9:0.285714 10:0 11:0.666667 12:0.285714 13:0 14:0.76087 15:0.697946 16:0.648878 17:0.742776 18:0.733526 19:0.707326 20:0.2 21:0.19803 
20 1:0 2:1 3:0 4:0 5:1 6:0 7:1 8:0.285714 9:0 10:0 11:0.285714 12:0 13:0 14:0.57037 15:0.454649 16:0.262641 17:0.645688 18:0.664748 19:0.545716 20:0.249999 21:0.425346 
-20 1:0 2:1 3:0 4:0 5:1 6:0 7:1 8:0.571429 9:0 10:0 11:0.571429 12:0 13:0 14:0.717949 15:0.641897 16:0.611323 17:0.620576 18:0.682455 19:0.642684 20:0.249999 21:0.023011 
-20 1:0 2:1 3:0 4:0 5:1 6:0 7:1 8:0.25 9:0 10:0 11:0.25 12:0 13:0 14:0.465116 15:0.431547 16:0.242581 17:0.63725 18:0.687929 19:0.704575 20:0.399999 21:0.272552 
-20 1:0 2:1 3:0 4:0 5:1 6:0 7:1 8:0.333333 9:0 10:0 11:0.333333 12:0 13:0 14:0.777778 15:0.44714 16:0.271271 17:0.749739 18:0.732399 19:0.686738 20:0 21:0.201139 
20 1:0 2:1 3:0 4:0 5:1 6:0 7:1 8:0.545455 9:0 10:0 11:0.727273 12:0.222222 13:0 14:0.781528 15:0.607852 16:0.702136 17:0.730099 18:0.703705 19:0.690113 20:0.166666 21:0.177537 
-20 1:0 2:1 3:0 4:0 5:1 6:0 7:1 8:0.571429 9:0.4 10:0 11:0.571429 12:0.4 13:0 14:0.686617 15:0.558222 16:0.546719 17:0.90011 18:0.907443 19:0.87534 20:0.249999 21:0.214864 
-20 1:0 2:1 3:0 4:0 5:1 6:0 7:1 8:0.571429 9:0 10:0 11:0.571429 12:0 13:0 14:0.669231 15:0.662535 16:0.513261 17:0.94089 18:0.939486 19:0.913138 20:0.249999 21:0.305998 
-20 1:0 2:1 3:0 4:0 5:1 6:0 7:1 8:0.571429 9:0.4 10:0 11:0.571429 12:0.4 13:0 14:0.933333 15:0.693011 16:0.637791 17:0.725188 18:0.82009 19:0.815249 20:0.249999 21:0.255279 
-20 1:0 2:1 3:0 4:0 5:1 6:0 7:1 8:0.571429 9:0.4 10:0 11:0.571429 12:0.4 13:0 14:0.642857 15:0.608156 16:0.51247 17:0.757316 18:0.706774 19:0.582012 20:0.249999 21:0.091709 
20 1:0 2:1 3:0 4:0 5:1 6:0 7:1 8:0.285714 9:0 10:0 11:0.285714 12:0 13:0 14:0.399953 15:0.364153 16:0.215986 17:0.709848 18:0.671506 19:0.424113 20:0.249999 21:0.232503 
20 1:0 2:1 3:0 4:0 5:1 6:0 7:1 8:0.333333 9:0 10:0 11:0.333333 12:0 13:0 14:0.532407 15:0.495339 16:0.331189 17:0.336688 18:0.315117 19:0.373326 20:0 21:0.159777 
20 1:0 2:1 3:0 4:0 5:1 6:0 7:1 8:0.333333 9:0 10:0 11:0.333333 12:0 13:0 14:0.452913 15:0.389487 16:0.250088 17:0.303665 18:0.152199 19:0.19248 20:0 21:0.194599 
-20 1:0 2:1 3:0 4:0 5:1 6:0 7:1 8:0.8 9:0.666667 10:1 11:0.8 12:0.666667 13:1 14:0.857143 15:0.733058 16:0.770085 17:0.869209 18:0.833625 19:0.794383 20:0.333332 21:0.403939 
20 1:0 2:1 3:0 4:0 5:1 6:0 7:1 8:0.545455 9:0.222222 10:0 11:0.545455 12:0.222222 13:0 14:0.69697 15:0.573816 16:0.560528 17:0.817108 18:0.851217 19:0.737443 20:0.166666 21:0.13345 
-20 1:0 2:1 3:0 4:0 5:1 6:0 7:1 8:0.2 9:0 10:0 11:0.2 12:0 13:0 14:0.323993 15:0.324222 16:0.190109 17:0.452778 18:0.397278 19:0.327378 20:0 21:0.58431 
20 1:0 2:1 3:0 4:0 5:1 6:0 7:1 8:0.666667 9:0 10:0 11:0.666667 12:0 13:0 14:0.833333 15:0.676216 16:0.671168 17:0.799379 18:0.821081 19:0.766409 20:0 21:0.015227 
20 1:0 2:1 3:0 4:0 5:1 6:0 7:1 8:0.4 9:0.25 10:0 11:0.4 12:0.25 13:0 14:0.824242 15:0.417956 16:0.448158 17:0.819274 18:0.885795 19:0.829086 20:0 21:0.230703 
20 1:0 2:1 3:0 4:0 5:1 6:0 7:1 8:0.444444 9:0.285714 10:0 11:0.444444 12:0.285714 13:0 14:0.806202 15:0.383681 16:0.377983 17:0.656827 18:0.611015 19:0.544502 20:0.2 21:0.109785 
-20 1:0 2:1 3:0 4:0 5:1 6:0 7:1 8:0.666667 9:0.5 10:0 11:0.666667 12:0.5 13:0 14:0.722222 15:0.523578 16:0.565917 17:0.6834 18:0.483877 19:0.560675 20:0 21:0.116879 
-20 1:0 2:1 3:0 4:0 5:1 6:0 7:1 8:0.571429 9:0.4 10:0 11:0.571429 12:0.4 13:0 14:0.698163 15:0.566269 16:0.597008 17:0.7779 18:0.770747 19:0.752116 20:0.249999 21:0.309163 
-20 1:0 2:1 3:0 4:0 5:1 6:0 7:1 8:0.285714 9:0 10:0 11:0.285714 12:0 13:0 14:0.666667 15:0.330028 16:0.353223 17:0.739883 18:0.845974 19:0.658646 20:0.249999 21:0.139714 
-20 1:0 2:1 3:0 4:0 5:1 6:0 7:1 8:0.285714 9:0 10:0 11:0.285714 12:0 13:0 14:0.475915 15:0.429511 16:0.23938 17:0.489694 18:0.430395 19:0.32068 20:0.249999 21:0.194218 
20 1:0 2:1 3:0 4:0 5:1 6:0 7:1 8:0.4 9:0 10:1 11:0.4 12:0 13:1 14:0.503979 15:0.467781 16:0.293698 17:0.352782 18:0.206344 19:0.250501 20:0.333332 21:0.493926 
20 1:0 2:1 3:0 4:0 5:1 6:0 7:1 8:0 9:0 10:1 11:0 12:0 13:1 14:0.291667 15:0.363157 16:0 17:0.318356 18:0.259759 19:0.209916 20:0 21:0.176908 
20 1:0 2:1 3:0 4:0 5:1 6:0 7:1 8:0 9:0 10:1 11:0 12:0 13:1 14:0.291667 15:0.363157 16:0 17:0.318356 18:0.259759 19:0.209916 20:0 21:0.176908 
20 1:0 2:1 3:0 4:0 5:1 6:0 7:1 8:0.333333 9:0 10:0 11:0.333333 12:0 13:0 14:0.490566 15:0.426509 16:0.301924 17:0.280105 18:0.22055 19:0.225707 20:0 21:0.046521 
20 1:0 2:1 3:0 4:0 5:1 6:0 7:1 8:0.333333 9:0 10:0 11:0.333333 12:0 13:0 14:0.429246 15:0.405488 16:0.289777 17:0.305602 18:0.219927 19:0.268716 20:0 21:0.00966 
20 1:0 2:1 3:0 4:0 5:1 6:0 7:1 8:0.25 9:0 10:0 11:0.25 12:0 13:0 14:0.612994 15:0.487499 16:0.294561 17:0.533654 18:0.633496 19:0.529571 20:0 21:0.111993 
20 1:0 2:1 3:0 4:0 5:1 6:0 7:1 8:0.25 9:0 10:0 11:0.25 12:0 13:0 14:0.5 15:0.448423 16:0.267679 17:0.493502 18:0.568574 19:0.537537 20:0 21:0.083273 
20 1:0 2:1 3:0 4:0 5:1 6:0 7:1 8:0.571429 9:0.4 10:0 11:0.571429 12:0.4 13:0 14:0.674312 15:0.560216 16:0.49846 17:0.846811 18:0.792657 19:0.671176 20:0.249999 21:0.361943 
5.057299737671054 1:0 2:1 3:0 4:0 5:1 6:0 7:1 8:0.444444 9:0.285714 10:0 11:0.666667 12:0.571429 13:0.4 14:0.835979 15:0.467589 16:0.617904 17:0.770895 18:0.691497 19:0.665923 20:0.2 21:0.293735 
20 1:0 2:1 3:0 4:0 5:1 6:0 7:1 8:0.6 9:0.25 10:0 11:0.6 12:0.25 13:0 14:0.694964 15:0.656586 16:0.603821 17:0.655698 18:0.676249 19:0.766777 20:0 21:0.293286 
20 1:0 2:1 3:0 4:0 5:1 6:0 7:1 8:0.333333 9:0 10:0 11:0.333333 12:0 13:0 14:0.501231 15:0.472488 16:0.325754 17:0.670193 18:0.667506 19:0.527916 20:0.285714 21:0.077222 
20 1:0 2:1 3:0 4:0 5:1 6:0 7:1 8:0.333333 9:0 10:0 11:0.333333 12:0 13:0 14:0.445828 15:0.474418 16:0.246369 17:0.570784 18:0.475704 19:0.265479 20:0 21:0.111824 
-20 1:0 2:1 3:0 4:0 5:1 6:0 7:1 8:0.333333 9:0 10:0 11:0.333333 12:0 13:0 14:0.75 15:0.393123 16:0.269924 17:0.807985 18:0.816388 19:0.607289 20:0 21:0.134584 
16.9418908178434 1:0 2:1 3:0 4:0 5:1 6:0 7:1 8:0.333333 9:0 10:0 11:0.333333 12:0 13:0 14:0.555556 15:0.525143 16:0.375247 17:0.845329 18:0.882562 19:0.823445 20:0 21:0.102419 
-20 1:0 2:1 3:0 4:0 5:1 6:0 7:1 8:0.4 9:0 10:1 11:0.4 12:0 13:1 14:0.633028 15:0.563572 16:0.352042 17:0.463144 18:0.366846 19:0.311039 20:0.333332 21:0.325208 
8.345089435369896 1:0 2:1 3:0 4:0 5:1 6:0 7:1 8:0.666667 9:0.571429 10:0.4 11:0.666667 12:0.571429 13:0.4 14:0.730159 15:0.73894 16:0.683769 17:0.853684 18:0.880815 19:0.823414 20:0.499999 21:0.436143 
20 1:0 2:1 3:0 4:0 5:1 6:0 7:1 8:0.5 9:0 10:0 11:0.5 12:0 13:0 14:0.674603 15:0.695597 16:0.526772 17:0.721317 18:0.745249 19:0.719829 20:0.399999 21:0.234116 
20 1:0 2:1 3:0 4:0 5:1 6:0 7:1 8:0.428571 9:0.166667 10:0 11:0.428571 12:0.166667 13:0 14:0.695971 15:0.577239 16:0.517154 17:0.621038 18:0.724789 19:0.74633 20:0 21:0.045649 
20 1:0 2:1 3:0 4:0 5:1 6:0 7:1 8:0.285714 9:0 10:0 11:0.285714 12:0 13:0 14:0.432145 15:0.386576 16:0.241523 17:0.210496 18:0.132111 19:0.161062 20:0.249999 21:0.365034 
20 1:0 2:1 3:0 4:0 5:1 6:0 7:1 8:0.333333 9:0 10:0 11:0.333333 12:0 13:0 14:0.478261 15:0.463096 16:0.265116 17:0.285368 18:0.160039 19:0.174937 20:0 21:0.113994 
20 1:0 2:1 3:0 4:0 5:1 6:0 7:1 8:0.4 9:0 10:1 11:0.4 12:0 13:1 14:0.525 15:0.532025 16:0.337763 17:0.402363 18:0.28604 19:0.267607 20:0.333332 21:0.423622 
-20 1:0 2:1 3:0 4:0 5:1 6:0 7:1 8:0.4 9:0 10:1 11:0.4 12:0 13:1 14:0.532787 15:0.51615 16:0.331103 17:0.343996 18:0.234264 19:0.245492 20:0.333332 21:0.485592 
20 1:0 2:1 3:0 4:0 5:1 6:0 7:1 8:0.444444 9:0.25 10:0.142857 11:0.444444 12:0.25 13:0.142857 14:0.660048 15:0.487107 16:0.414014 17:0.775462 18:0.766891 19:0.550503 20:0.2 21:0.238119 
20 1:0 2:1 3:0 4:0 5:1 6:0 7:1 8:0.2 9:0 10:0 11:0.2 12:0 13:0 14:0.425079 15:0.383195 16:0.166976 17:0.405429 18:0.302077 19:0.304348 20:0 21:0.369307 
20 1:0 2:1 3:0 4:0 5:1 6:0 7:1 8:0.4 9:0 10:1 11:0.4 12:0 13:1 14:0.6 15:0.408473 16:0.34974 17:0.745837 18:0.716834 19:0.629017 20:0.333332 21:0.177765 
-20 1:0 2:1 3:0 4:0 5:1 6:0 7:1 8:0.333333 9:0 10:0 11:0.333333 12:0 13:0 14:0.541311 15:0.446356 16:0.290436 17:0.337385 18:0.269883 19:0.240805 20:0 21:0.295842 
-20 1:0 2:1 3:0 4:0 5:1 6:0 7:1 8:0.333333 9:0 10:0 11:0.333333 12:0 13:0 14:0.505495 15:0.527696 16:0.258107 17:0.488888 18:0.380692 19:0.234404 20:0 21:0.002994 
-20 1:0 2:1 3:0 4:0 5:1 6:0 7:1 8:0.285714 9:0 10:0 11:0.285714 12:0 13:0 14:0.436664 15:0.404973 16:0.239257 17:0.253318 18:0.160046 19:0.236215 20:0.249999 21:0.256654 
-20 1:0 2:1 3:0 4:0 5:1 6:0 7:1 8:0.25 9:0 10:0 11:0.25 12:0 13:0 14:0.404638 15:0.379497 16:0.258335 17:0.29568 18:0.272924 19:0.24588 20:0.399999 21:0.324473 
-20 1:0 2:1 3:0 4:0 5:1 6:0 7:1 8:0.363636 9:0.222222 10:0 11:0.363636 12:0.222222 13:0 14:0.74596 15:0.534304 16:0.312564 17:0.64642 18:0.608013 19:0.484962 20:0.428571 21:0.348954 
20 1:0 2:1 3:0 4:0 5:1 6:0 7:1 8:0.6 9:0.25 10:0 11:0.6 12:0.25 13:0 14:0.705128 15:0.678369 16:0.694211 17:0.841115 18:0.878321 19:0.823023 20:0.333333 21:0.019212 
-20 1:0 2:1 3:0 4:0 5:1 6:0 7:1 8:0.75 9:0.333333 10:0 11:0.75 12:0.333333 13:0 14:0.787879 15:0.659381 16:0.778916 17:0.831651 18:0.871031 19:0.823743 20:0.399999 21:0.249577 
20 1:0 2:1 3:0 4:0 5:1 6:0 7:1 8:0.333333 9:0 10:0 11:0.333333 12:0 13:0 14:0.583333 15:0.515687 16:0.321991 17:0.658238 18:0.704793 19:0.642498 20:0 21:0.00544 
20 1:0 2:1 3:0 4:0 5:1 6:0 7:1 8:0.333333 9:0 10:0 11:0.333333 12:0 13:0 14:0.611111 15:0.47753 16:0.330657 17:0.492321 18:0.494008 19:0.41941 20:0 21:0.133048 
-20 1:0 2:1 3:0 4:0 5:1 6:0 7:1 8:0 9:0 10:1 11:0 12:0 13:1 14:0.333333 15:0.362411 16:0 17:0.097291 18:0.105202 19:0.021263 20:0 21:0.185461 
-20 1:0 2:1 3:0 4:0 5:1 6:0 7:1 8:0.285714 9:0 10:0 11:0.285714 12:0 13:0 14:0.669231 15:0.293718 16:0.283578 17:0.703356 18:0.74722 19:0.627628 20:0.249999 21:0.106372 
20 1:0 2:1 3:0 4:0 5:1 6:0 7:1 8:0 9:0 10:0 11:0 12:0 13:0 14:0.215019 15:0.237705 16:0 17:0.147438 18:0.060491 19:0.096488 20:0 21:0.318848 
-20 1:0 2:1 3:0 4:0 5:1 6:0 7:1 8:0.333333 9:0 10:0 11:0.666667 12:0.5 13:0 14:0.722222 15:0.407979 16:0.627946 17:0.879662 18:0.861678 19:0.891706 20:0 21:0.036501 
-20 1:0 2:1 3:0 4:0 5:1 6:0 7:1 8:0 9:0 10:0 11:0 12:0 13:0 14:0.30303 15:0.244494 16:0 17:0.335331 18:0.297604 19:0.220681 20:0 21:0.043158 
-20 1:0 2:1 3:0 4:0 5:1 6:0 7:1 8:0.285714 9:0 10:0 11:0.285714 12:0 13:0 14:0.539342 15:0.436332 16:0.249359 17:0.347726 18:0.338378 19:0.273454 20:0.249999 21:0.050457 
20 1:0 2:1 3:0 4:0 5:1 6:0 7:1 8:0.285714 9:0 10:0 11:0.285714 12:0 13:0 14:0.765766 15:0.466539 16:0.330538 17:0.550209 18:0.603971 19:0.546968 20:0.249999 21:0.274047 
20 1:0 2:1 3:0 4:0 5:1 6:0 7:1 8:0.285714 9:0 10:0 11:0.285714 12:0 13:0 14:0.537155 15:0.419717 16:0.27039 17:0.680609 18:0.643874 19:0.504202 20:0.249999 21:0.290166 
20 1:0 2:1 3:0 4:0 5:1 6:0 7:1 8:0.285714 9:0 10:0 11:0.285714 12:0 13:0 14:0.46902 15:0.404487 16:0.250746 17:0.391267 18:0.324194 19:0.244437 20:0.249999 21:0.125689 
-16.77910369056422 1:0 2:1 3:0 4:0 5:1 6:0 7:1 8:0 9:0 10:0 11:0 12:0 13:0 14:0.253814 15:0.214611 16:0 17:0.27943 18:0.247902 19:0.170018 20:0.249999 21:0.045295 
-20 1:0 2:1 3:0 4:0 5:1 6:0 7:1 8:0.333333 9:0 10:0 11:0.333333 12:0 13:0 14:0.5 15:0.447889 16:0.298733 17:0.654642 18:0.58195 19:0.685109 20:0 21:0.080171 
-20 1:0 2:1 3:0 4:0.693147 5:1 6:0 7:1 8:0.666667 9:0 10:0 11:0.444444 12:0 13:0 14:0.7 15:0.620408 16:0.382817 17:0.732846 18:0.623563 19:0.630841 20:0.2 21:0.167738 
13.40028243015995 1:0 2:1 3:0 4:0 5:1 6:0 7:1 8:0 9:0 10:0 11:0 12:0 13:0 14:0.381818 15:0.238253 16:0 17:0.521211 18:0.574804 19:0.284673 20:0.249999 21:0.31358 
-20 1:0 2:1 3:0 4:0 5:1 6:0 7:1 8:0.285714 9:0 10:0 11:0.285714 12:0 13:0 14:0.470588 15:0.459763 16:0.232386 17:0.308971 18:0.207311 19:0.372585 20:0.249999 21:0.25075 
-1.478966248056039 1:0 2:1 3:0 4:0 5:1 6:0 7:1 8:0.4 9:0 10:1 11:0.4 12:0 13:1 14:0.562249 15:0.527381 16:0.321257 17:0.321363 18:0.159302 19:0.240521 20:0.333332 21:0.408445 
20 1:0 2:1 3:0 4:0.693147 5:1 6:0 7:1 8:0.571429 9:0.4 10:0 11:0.571429 12:0.4 13:0 14:0.717949 15:0.508444 16:0.558441 17:0.755896 18:0.74853 19:0.563695 20:0.249999 21:0.235852 
-12.84101061199068 1:0 2:1 3:0 4:0 5:1 6:0 7:1 8:0.571429 9:0.4 10:0 11:0.571429 12:0.4 13:0 14:0.626932 15:0.624627 16:0.60106 17:0.730995 18:0.75239 19:0.716136 20:0.249999 21:0.355351 
20 1:0 2:1 3:0 4:0 5:1 6:0 7:1 8:0.444444 9:0 10:0 11:0.444444 12:0 13:0 14:0.690647 15:0.460308 16:0.42936 17:0.828542 18:0.811884 19:0.614471 20:0.2 21:0.034141 
20 1:0 2:1 3:0 4:0 5:1 6:0 7:1 8:0.615385 9:0.363636 10:0.222222 11:0.769231 12:0.545455 13:0.222222 14:0.827957 15:0.549959 16:0.733612 17:0.956913 18:0.943406 19:0.839817 20:0.142857 21:0.19948 
-8.454773447883925 1:0 2:1 3:0 4:0 5:1 6:0 7:1 8:0 9:0 10:0 11:0 12:0 13:0 14:0.218182 15:0.346079 16:0 17:0.474841 18:0.500905 19:0.556795 20:0 21:0.303594 
-20 1:0 2:1 3:0 4:0 5:1 6:0 7:1 8:0.333333 9:0 10:0 11:0.333333 12:0 13:0 14:0.541311 15:0.41065 16:0.298075 17:0.36022 18:0.286703 19:0.396103 20:0 21:0.212187 
20 1:0 2:1 3:0 4:0 5:1 6:0 7:1 8:0.666667 9:0.5 10:1 11:0.666667 12:0.5 13:1 14:0.683544 15:0.733823 16:0.697675 17:0.720737 18:0.76944 19:0.755581 20:0.499999 21:0.408802 
-20 1:0 2:1 3:0 4:0 5:1 6:0 7:1 8:0.285714 9:0 10:0 11:0.285714 12:0 13:0 14:0.465505 15:0.392822 16:0.243512 17:0.225857 18:0.137994 19:0.175972 20:0.249999 21:0.249208 
20 1:0 2:1 3:0 4:0 5:1 6:0 7:1 8:0.333333 9:0 10:0 11:0.333333 12:0 13:0 14:0.436508 15:0.366628 16:0.233672 17:0.276562 18:0.123724 19:0.130172 20:0 21:0.150658 
20 1:0 2:1 3:0 4:0 5:1 6:0 7:1 8:0.6 9:0 10:0 11:0.6 12:0 13:0 14:0.682927 15:0.59821 16:0.590811 17:0.683425 18:0.643585 19:0.651915 20:0 21:0.136278 
-20 1:0 2:1 3:0 4:0 5:1 6:0 7:1 8:0.75 9:0.333333 10:0 11:0.75 12:0.333333 13:0 14:0.823529 15:0.682408 16:0.752859 17:0.843877 18:0.846448 19:0.843005 20:0.399999 21:0.386548 
20 1:0 2:1 3:0 4:0 5:1 6:0 7:1 8:0.444444 9:0 10:0 11:0.444444 12:0 13:0 14:0.616107 15:0.551175 16:0.452377 17:0.682729 18:0.704524 19:0.549576 20:0.2 21:0.02258 
20 1:0 2:1 3:0 4:0 5:1 6:0 7:1 8:0.444444 9:0 10:0 11:0.444444 12:0 13:0 14:0.619504 15:0.434316 16:0.422308 17:0.777394 18:0.849602 19:0.642503 20:0.2 21:0.439497 
20 1:0 2:1 3:0 4:0 5:1 6:0 7:1 8:0.4 9:0.153846 10:0 11:0.533333 12:0.153846 13:0 14:0.695906 15:0.558177 16:0.573398 17:0.790919 18:0.824474 19:0.727052 20:0.333333 21:0.362287 
20 1:0 2:1 3:0 4:0 5:1 6:0 7:1 8:0.4 9:0 10:1 11:0.4 12:0 13:1 14:0.545113 15:0.398146 16:0.365353 17:0.739858 18:0.686026 19:0.372993 20:0.333332 21:0.348552 
7.068032224239055 1:0 2:1 3:0 4:0 5:1 6:0 7:1 8:0.333333 9:0 10:1 11:0.666667 12:0 13:1 14:0.896552 15:0.360035 16:0.678524 17:0.721346 18:0.739171 19:0.754593 20:0.499999 21:0.322212 
20 1:0 2:1 3:0 4:0 5:1 6:0 7:1 8:0.428571 9:0.166667 10:0 11:0.571429 12:0.166667 13:0 14:0.666667 15:0.461714 16:0.590471 17:0.835325 18:0.849255 19:0.706056 20:0 21:0.149729 
20 1:0 2:1 3:0 4:0 5:1 6:0 7:1 8:0.333333 9:0 10:0 11:0.333333 12:0 13:0 14:0.411604 15:0.457577 16:0.217842 17:0.629494 18:0.45644 19:0.318872 20:0 21:0.20631 
-20 1:0 2:1 3:0 4:0 5:1 6:0 7:1 8:0.571429 9:0.4 10:0 11:0.571429 12:0.4 13:0 14:0.681818 15:0.557334 16:0.483397 17:0.778257 18:0.718814 19:0.768442 20:0.249999 21:0.330703 
20 1:0 2:1 3:0 4:0 5:1 6:0 7:1 8:0.571429 9:0.4 10:0 11:0.571429 12:0.4 13:0 14:0.753425 15:0.658818 16:0.588966 17:0.74625 18:0.752331 19:0.664819 20:0.249999 21:0.155598 
-20 1:0 2:1 3:0 4:0 5:1 6:0 7:1 8:0.571429 9:0 10:0 11:0.571429 12:0 13:0 14:0.888889 15:0.574034 16:0.578351 17:0.773515 18:0.782502 19:0.761127 20:0.249999 21:0.313922 
20 1:0 2:1 3:0 4:0 5:1 6:0 7:1 8:0.5 9:0 10:0 11:0.5 12:0 13:0 14:0.697761 15:0.443056 16:0.451513 17:0.723565 18:0.643274 19:0.539363 20:0 21:0.137651 
20 1:0 2:1 3:0 4:0 5:1 6:0 7:1 8:0.545455 9:0.222222 10:0 11:0.545455 12:0.222222 13:0 14:0.674074 15:0.395935 16:0.468093 17:0.69026 18:0.522981 19:0.799398 20:0.166666 21:0.0375 
20 1:0 2:1 3:0 4:0 5:1 6:0 7:1 8:0.444444 9:0 10:0 11:0.444444 12:0 13:0 14:0.611111 15:0.356405 16:0.51294 17:0.577063 18:0.686152 19:0.633392 20:0.2 21:0.19492 
20 1:0 2:1 3:0 4:0 5:1 6:0 7:1 8:0.285714 9:0 10:0 11:0.571429 12:0.4 13:0 14:0.753425 15:0.379888 16:0.493131 17:0.726596 18:0.630728 19:0.651198 20:0.249999 21:0.200634 
-20 1:0 2:1 3:0 4:0 5:1 6:0 7:1 8:0.5 9:0 10:0 11:0.5 12:0 13:0 14:0.655647 15:0.460422 16:0.479528 17:0.704583 18:0.699223 19:0.584613 20:0.399999 21:0.424016 
-20 1:0 2:1 3:0 4:0 5:1 6:0 7:1 8:0.571429 9:0 10:0 11:0.571429 12:0 13:0 14:0.639785 15:0.533275 16:0.544548 17:0.879304 18:0.891589 19:0.691127 20:0.249999 21:0.219064 
-20 1:0 2:1 3:0 4:0 5:1 6:0 7:1 8:0.4 9:0 10:0 11:0.6 12:0.25 13:0 14:0.72327 15:0.43791 16:0.612569 17:0.748389 18:0.737213 19:0.813858 20:0.333333 21:0.140874 
20 1:0 2:1 3:0 4:0 5:1 6:0 7:1 8:0.285714 9:0 10:0 11:0.285714 12:0 13:0 14:0.562372 15:0.44806 16:0.208706 17:0.422244 18:0.31011 19:0.245666 20:0.249999 21:0.05787 
-20 1:0 2:1 3:0 4:0 5:1 6:0 7:1 8:0.4 9:0 10:1 11:0.8 12:0.666667 13:1 14:0.83871 15:0.362578 16:0.805407 17:0.818873 18:0.827986 19:0.823711 20:0.333332 21:0.339258 
-20 1:0 2:1 3:0 4:0 5:1 6:0 7:1 8:0.333333 9:0 10:0 11:0.333333 12:0 13:0 14:0.754902 15:0.449517 16:0.274187 17:0.731692 18:0.708996 19:0.656999 20:0 21:0.183566 
-20 1:0 2:1 3:0 4:0 5:1 6:0 7:1 8:0.285714 9:0 10:0 11:0.571429 12:0.4 13:0 14:0.679675 15:0.330358 16:0.635873 17:0.736862 18:0.827302 19:0.767736 20:0.249999 21:0.138862 
-20 1:0 2:1 3:0 4:0 5:1 6:0 7:1 8:0.285714 9:0 10:0 11:0.285714 12:0 13:0 14:0.445116 15:0.461709 16:0.270124 17:0.183017 18:0.149067 19:0.231751 20:0.249999 21:0.293559 
20 1:0 2:1 3:0 4:0 5:1 6:0 7:1 8:0.222222 9:0 10:0 11:0.222222 12:0 13:0 14:0.360375 15:0.502761 16:0.189122 17:0.485145 18:0.369002 19:0.338877 20:0.2 21:0.023 
-20 1:0 2:1 3:0 4:0 5:1 6:0 7:1 8:0.4 9:0 10:1 11:0.4 12:0 13:1 14:0.552846 15:0.471763 16:0.312709 17:0.66551 18:0.587033 19:0.469207 20:0.333332 21:0.371404 
20 1:0 2:1 3:0 4:0 5:1 6:0 7:1 8:0 9:0 10:0 11:0 12:0 13:0 14:0.207991 15:0.240952 16:0 17:0.154904 18:0.094611 19:0.084335 20:0 21:0.160804 
20 1:0 2:1 3:0 4:0 5:1 6:0 7:1 8:0.285714 9:0 10:0 11:0.285714 12:0 13:0 14:0.361905 15:0.395821 16:0.224008 17:0.340661 18:0.259061 19:0.136725 20:0.249999 21:0.165498 
-20 1:0 2:1 3:0 4:0 5:1 6:0 7:1 8:0 9:0 10:1 11:0 12:0 13:1 14:0.28033 15:0.320171 16:0 17:0.241768 18:0.194336 19:0.169419 20:0.333332 21:0.491774 
12.81162995761998 1:0 2:1 3:0 4:0 5:1 6:0 7:1 8:0 9:0 10:0 11:0 12:0 13:0 14:0.218254 15:0.124776 16:0 17:0.304559 18:0.323448 19:0.133911 20:0 21:0.097976 
-20 1:0 2:1 3:0 4:0 5:1 6:0 7:1 8:0.588235 9:0.4 10:0.153846 11:0.705882 12:0.533333 13:0.307692 14:0.857143 15:0.589098 16:0.739789 17:0.895098 18:0.950508 19:0.902009 20:0.454545 21:0.371294 
20 1:0 2:1 3:0 4:0 5:1 6:0 7:1 8:0.5 9:0.333333 10:0 11:0.5 12:0.333333 13:0 14:0.666667 15:0.637314 16:0.578275 17:0.715694 18:0.846613 19:0.772942 20:0.399999 21:0.37867 
-20 1:0 2:1 3:0 4:0 5:1 6:0 7:1 8:0.4 9:0 10:0 11:0.6 12:0.25 13:0 14:0.841584 15:0.416012 16:0.594395 17:0.925465 18:0.916843 19:0.787193 20:0 21:0.019016 
-20 1:0 2:1 3:0 4:0 5:1 6:0 7:1 8:0.666667 9:0.285714 10:0 11:0.666667 12:0.285714 13:0 14:0.803987 15:0.661349 16:0.688867 17:0.795455 18:0.800965 19:0.784501 20:0.499999 21:0.434759 
20 1:0 2:1 3:0 4:0 5:1 6:0 7:1 8:0.4 9:0.25 10:0 11:0.4 12:0.25 13:0 14:0.562249 15:0.450786 16:0.378176 17:0.359408 18:0.354802 19:0.30675 20:0.333333 21:0.533316 
20 1:0 2:1 3:0 4:0 5:1 6:0 7:1 8:0.285714 9:0 10:0 11:0.285714 12:0 13:0 14:0.5168 15:0.39974 16:0.314236 17:0.46967 18:0.410014 19:0.349171 20:0.249999 21:0.253626 
-20 1:0 2:1 3:0 4:0 5:1 6:0 7:1 8:0.666667 9:0 10:0 11:0.888889 12:0.285714 13:0 14:0.928571 15:0.621835 16:0.885319 17:0.904665 18:0.901485 19:0.892704 20:0.2 21:0.203443 
4.605758172443656 1:0 2:1 3:0 4:0 5:1 6:0 7:1 8:0.5 9:0 10:0 11:0.5 12:0 13:0 14:0.633333 15:0.545355 16:0.548685 17:0.628617 18:0.716879 19:0.678302 20:0 21:0.100702 
20 1:0 2:1 3:0 4:0 5:1 6:0 7:1 8:0.4 9:0 10:0 11:0.4 12:0 13:0 14:0.563636 15:0.448264 16:0.379296 17:0.515587 18:0.4517 19:0.392712 20:0.333333 21:0.304284 
20 1:0 2:1 3:0 4:0 5:1 6:0 7:1 8:0.5 9:0 10:0 11:0.5 12:0 13:0 14:0.655647 15:0.538751 16:0.494978 17:0.547473 18:0.545989 19:0.560341 20:0.399999 21:0.21582 
-20 1:0 2:1 3:0 4:0 5:1 6:0 7:1 8:0.25 9:0 10:0 11:0.25 12:0 13:0 14:0.371291 15:0.336185 16:0.209884 17:0.354729 18:0.28215 19:0.189577 20:0.399999 21:0.389043 
-20 1:0 2:1 3:0 4:0 5:1 6:0 7:1 8:0.333333 9:0 10:0 11:0.333333 12:0 13:0 14:0.501406 15:0.38726 16:0.284377 17:0.415165 18:0.32114 19:0.218472 20:0 21:0.20689 
11.22846782405995 1:0 2:1 3:0 4:0 5:1 6:0 7:1 8:0.333333 9:0 10:0 11:0.333333 12:0 13:0 14:0.492063 15:0.520166 16:0.343684 17:0.673161 18:0.777056 19:0.537109 20:0 21:0.068687 
-20 1:0 2:1 3:0 4:0 5:1 6:0 7:1 8:0 9:0 10:0 11:0 12:0 13:0 14:0.190977 15:0.2247 16:0 17:0.326199 18:0.326407 19:0.136782 20:0.249999 21:0.163401 
20 1:0 2:1 3:0 4:0 5:1 6:0 7:1 8:0 9:0 10:0 11:0 12:0 13:0 14:0.298246 15:0.357964 16:0 17:0.148295 18:0.086628 19:0.090597 20:0 21:0.002564 
20 1:0 2:1 3:0 4:0 5:1 6:0 7:1 8:0.5 9:0 10:0 11:0.666667 12:0.4 13:0.25 14:0.75 15:0.431504 16:0.731576 17:0.814931 18:0.876638 19:0.858213 20:0 21:0.00946 
20 1:0 2:1 3:0 4:0 5:1 6:0 7:1 8:0.333333 9:0 10:0 11:0.333333 12:0 13:0 14:0.477263 15:0.444496 16:0.212637 17:0.328734 18:0.134119 19:0.148886 20:0 21:0.185747 
-20 1:0 2:1 3:0 4:0 5:1 6:0 7:1 8:0.4 9:0 10:1 11:0.4 12:0 13:1 14:0.537975 15:0.402658 16:0.353872 17:0.397762 18:0.330156 19:0.632431 20:0.333332 21:0.43488 
20 1:0 2:1 3:0 4:0 5:1 6:0 7:1 8:0.5 9:0 10:0 11:0.5 12:0 13:0 14:0.8 15:0.580666 16:0.543145 17:0.684327 18:0.751197 19:0.749177 20:0.399999 21:0.342475 
20 1:0 2:1 3:0 4:0 5:1 6:0 7:1 8:0.25 9:0 10:0 11:0.5 12:0.333333 13:0 14:0.708333 15:0.236543 16:0.430073 17:0.88713 18:0.842027 19:0.827664 20:0 21:0.046721 
20 1:0 2:1 3:0 4:0 5:1 6:0 7:1 8:0.444444 9:0 10:0 11:0.444444 12:0 13:0 14:0.567848 15:0.426539 16:0.473986 17:0.774847 18:0.838935 19:0.547111 20:0.2 21:0.158815 
20 1:0 2:1 3:0 4:0 5:1 6:0 7:1 8:0.444444 9:0.285714 10:0 11:0.666667 12:0.571429 13:0.4 14:0.770609 15:0.41145 16:0.670075 17:0.78554 18:0.828823 19:0.731185 20:0.2 21:0.234933 
-20 1:0 2:1 3:0 4:0 5:1 6:0 7:1 8:0.285714 9:0 10:0 11:0.571429 12:0 13:0 14:0.909091 15:0.201447 16:0.620142 17:0.727709 18:0.763857 19:0.67659 20:0.249999 21:0.088558 
20 1:0 2:1 3:0 4:0 5:1 6:0 7:1 8:0.25 9:0 10:0 11:0.5 12:0.333333 13:0 14:0.537209 15:0.243964 16:0.554316 17:0.609681 18:0.70511 19:0.669136 20:0 21:0.036088 
20 1:0 2:1 3:0 4:0 5:1 6:0 7:1 8:0.363636 9:0.222222 10:0 11:0.363636 12:0.222222 13:0 14:0.527096 15:0.414928 16:0.353291 17:0.700542 18:0.717782 19:0.644991 20:0.428571 21:0.27003 
-20 1:0 2:1 3:0 4:0 5:1 6:0 7:1 8:0.285714 9:0 10:0 11:0.285714 12:0 13:0 14:0.485408 15:0.469156 16:0.291136 17:0.702569 18:0.721385 19:0.482904 20:0.249999 21:0.374957 
-20 1:0 2:1 3:0 4:0 5:1 6:0 7:1 8:0.333333 9:0 10:0 11:0.333333 12:0 13:0 14:0.431813 15:0.404754 16:0.265569 17:0.390495 18:0.255334 19:0.281844 20:0 21:0.166281 
-20 1:0 2:1 3:0 4:0 5:1 6:0 7:1 8:0.333333 9:0 10:0 11:0.333333 12:0 13:0 14:0.526316 15:0.366026 16:0.266938 17:0.350135 18:0.227974 19:0.298057 20:0 21:0.022285 
-20 1:0 2:1 3:0 4:0 5:1 6:0 7:1 8:0.285714 9:0 10:0 11:0.285714 12:0 13:0 14:0.494683 15:0.433756 16:0.258101 17:0.471921 18:0.412528 19:0.246259 20:0.249999 21:0.206511 
-20 1:0 2:1 3:0 4:0 5:1 6:0 7:1 8:0 9:0 10:0 11:0.222222 12:0 13:0 14:0.698413 15:0.254538 16:0.214815 17:0.530604 18:0.517765 19:0.271839 20:0.2 21:0.271873 
-20 1:0 2:1 3:0 4:0 5:1 6:0 7:1 8:0.285714 9:0 10:0 11:0.285714 12:0 13:0 14:0.440219 15:0.396522 16:0.233157 17:0.367047 18:0.334665 19:0.156464 20:0.249999 21:0.23232 
-20 1:0 2:1 3:0 4:0 5:1 6:0 7:1 8:0.333333 9:0 10:0 11:0.333333 12:0 13:0 14:0.611111 15:0.382098 16:0.304413 17:0.417994 18:0.316054 19:0.358002 20:0 21:0.10238 
-20 1:0 2:1 3:0 4:0 5:1 6:0 7:1 8:0.285714 9:0 10:0 11:0.285714 12:0 13:0 14:0.440219 15:0.392901 16:0.218024 17:0.261312 18:0.131649 19:0.22326 20:0.249999 21:0.272446 
20 1:0 2:1 3:0 4:0 5:1 6:0 7:1 8:0.333333 9:0 10:0 11:0.333333 12:0 13:0 14:0.549495 15:0.52819 16:0.411025 17:0.779937 18:0.853301 19:0.670918 20:0 21:0.178168 
20 1:0 2:1 3:0 4:0 5:1 6:0 7:1 8:0.25 9:0 10:0 11:0.25 12:0 13:0 14:0.36055 15:0.350744 16:0.215026 17:0.205712 18:0.115337 19:0.120278 20:0.399999 21:0.0609 
20 1:0 2:1 3:0 4:0 5:1 6:0 7:1 8:0.222222 9:0 10:0 11:0.222222 12:0 13:0 14:0.5 15:0.493031 16:0.285273 17:0.447397 18:0.536784 19:0.503299 20:0.2 21:0.020239 
20 1:0 2:1 3:0 4:0 5:1 6:0 7:1 8:0.588235 9:0.133333 10:0 11:0.588235 12:0.133333 13:0 14:0.687573 15:0.600815 16:0.562904 17:0.856995 18:0.837317 19:0.660488 20:0.454545 21:0.407069 
20 1:0 2:1 3:0 4:0 5:1 6:0 7:1 8:0 9:0 10:0 11:0 12:0 13:0 14:0.186817 15:0.196928 16:0 17:0.259607 18:0.303175 19:0.186137 20:0.249999 21:0.180561 
-20 1:0 2:1 3:0 4:0 5:1 6:0 7:1 8:0.25 9:0 10:0 11:0.25 12:0 13:0 14:0.49115 15:0.423537 16:0.20968 17:0.257578 18:0.195064 19:0.207586 20:0.399999 21:0.291195 
20 1:0 2:1 3:0 4:0 5:1 6:0 7:1 8:0 9:0 10:0 11:0 12:0 13:0 14:0.251708 15:0.180787 16:0 17:0.084253 18:0.033431 19:0.094444 20:0 21:0.155079 
20 1:0 2:1 3:0 4:0 5:1 6:0 7:1 8:0.5 9:0.4 10:0.25 11:0.5 12:0.4 13:0.25 14:0.675629 15:0.619883 16:0.494203 17:0.740649 18:0.847035 19:0.792769 20:0.499999 21:0.438946 
20 1:0 2:1 3:0 4:0 5:1 6:0 7:1 8:0.444444 9:0.285714 10:0 11:0.444444 12:0.285714 13:0 14:0.598291 15:0.493709 16:0.474487 17:0.758166 18:0.813348 19:0.631767 20:0.499999 21:0.348 
20 1:0 2:1 3:0 4:0 5:1 6:0 7:1 8:0 9:0 10:0 11:0 12:0 13:0 14:0.255435 15:0.223343 16:0 17:0.170089 18:0.118643 19:0.060462 20:0 21:0.145066 
-20 1:0 2:1 3:0 4:0 5:1 6:0 7:1 8:0.333333 9:0 10:0 11:0.333333 12:0 13:0 14:0.597701 15:0.438623 16:0.291021 17:0.491651 18:0.367616 19:0.314688 20:0 21:0.168104 
-20 1:0 2:1 3:0 4:0 5:1 6:0 7:1 8:0.444444 9:0 10:0 11:0.444444 12:0 13:0 14:0.595477 15:0.587606 16:0.420198 17:0.522867 18:0.453822 19:0.479763 20:0.499999 21:0.475391 
-20 1:0 2:1 3:0 4:0 5:1 6:0 7:1 8:0.25 9:0 10:0 11:0.25 12:0 13:0 14:0.438462 15:0.37172 16:0.281344 17:0.748719 18:0.805811 19:0.689862 20:0.399999 21:0.312354 
6.523715937051413 1:0 2:1 3:0 4:0 5:1 6:0 7:1 8:0.5 9:0 10:0 11:0.75 12:0.333333 13:0 14:0.77551 15:0.371537 16:0.77432 17:0.880604 18:0.903077 19:0.861569 20:0.399999 21:0.307404 
-20 1:0 2:1 3:0 4:0 5:1 6:0 7:1 8:0.25 9:0 10:0 11:0.25 12:0 13:0 14:0.460835 15:0.349102 16:0.198942 17:0.266709 18:0.134236 19:0.14602 20:0.399999 21:0.367119 
-20 1:0 2:1 3:0 4:0 5:1 6:0 7:1 8:0.285714 9:0 10:0 11:0.285714 12:0 13:0 14:0.407232 15:0.508042 16:0.284094 17:0.465156 18:0.393772 19:0.318172 20:0.249999 21:0.596486 
20 1:0 2:1 3:0 4:0 5:1 6:0 7:1 8:0 9:0 10:0 11:0 12:0 13:0 14:0.215385 15:0.33456 16:0 17:0.077698 18:0.013637 19:0.028386 20:0 21:0.251949 
20 1:0 2:1 3:0 4:0 5:1 6:0 7:1 8:0.333333 9:0 10:0 11:0.333333 12:0 13:0 14:0.554791 15:0.463935 16:0.36 17:0.837675 18:0.871354 19:0.776857 20:0 21:0.073755 
20 1:0 2:1 3:0 4:0 5:1 6:0 7:1 8:0.25 9:0 10:0 11:0.25 12:0 13:0 14:0.397858 15:0.283398 16:0.24103 17:0.362503 18:0.321254 19:0.615203 20:0 21:0.161179 
20 1:0 2:1 3:0 4:0 5:1 6:0 7:1 8:0.2 9:0 10:0 11:0.2 12:0 13:0 14:0.428275 15:0.288436 16:0.159964 17:0.342741 18:0.238371 19:0.257275 20:0 21:0.047678 
20 1:0 2:1 3:0 4:0 5:1 6:0 7:1 8:0.181818 9:0 10:0 11:0.181818 12:0 13:0 14:0.589986 15:0.347597 16:0.225286 17:0.502941 18:0.561216 19:0.422652 20:0.166666 21:0.029305 
-20 1:0 2:1 3:0 4:0 5:1 6:0 7:1 8:0.545455 9:0.3 10:0.222222 11:0.636364 12:0.5 13:0.444444 14:0.798856 15:0.605348 16:0.666572 17:0.862807 18:0.932566 19:0.928208 20:0.533333 21:0.516222 
20 1:0 2:1 3:0 4:0 5:1 6:0 7:1 8:0.333333 9:0 10:0 11:0.5 12:0.2 13:0 14:0.643382 15:0.274645 16:0.459499 17:0.869369 18:0.872787 19:0.879479 20:0.285714 21:0.300636 
-20 1:0 2:1 3:0 4:0 5:1 6:0 7:1 8:0.4 9:0 10:0 11:0.6 12:0 13:0 14:0.638298 15:0.315629 16:0.660761 17:0.684562 18:0.752294 19:0.738294 20:0.333333 21:0.176392 
-20 1:0 2:1 3:0 4:0 5:1 6:0 7:1 8:0.333333 9:0 10:1 11:0.333333 12:0 13:1 14:0.473317 15:0.358995 16:0.291906 17:0.469109 18:0.395092 19:0.353645 20:0.499999 21:0.534176 
-20 1:0 2:1 3:0 4:0 5:1 6:0 7:1 8:0.666667 9:0 10:0 11:0.666667 12:0 13:0 14:0.746256 15:0.619878 16:0.651648 17:0.796266 18:0.78171 19:0.647897 20:0.2 21:0.1167 
20 1:0 2:1 3:0 4:0 5:1 6:0 7:1 8:0.5 9:0 10:0 11:0.5 12:0 13:0 14:0.612817 15:0.432261 16:0.459014 17:0.525351 18:0.441596 19:0.453671 20:0.399999 21:0.191949 
-20 1:0 2:1 3:0 4:0 5:1 6:0 7:1 8:0.333333 9:0 10:0 11:0.333333 12:0 13:0 14:0.442504 15:0.545463 16:0.342203 17:0.681753 18:0.591289 19:0.566296 20:0 21:0.261714 
20 1:0 2:1 3:0 4:0 5:1 6:0 7:1 8:0.444444 9:0 10:0 11:0.444444 12:0 13:0 14:0.616105 15:0.655468 16:0.564411 17:0.562229 18:0.73669 19:0.768287 20:0.2 21:0.1646 
16.53155395418774 1:0 2:1 3:0 4:0.693147 5:1 6:0 7:1 8:0.307692 9:0 10:0 11:0.461538 12:0 13:0 14:0.525424 15:0.393321 16:0.44014 17:0.78687 18:0.788724 19:0.737639 20:0.142857 21:0.162301 
20 1:0 2:1 3:0 4:0 5:1 6:0 7:1 8:0.285714 9:0 10:0 11:0.285714 12:0 13:0 14:0.428719 15:0.366338 16:0.232235 17:0.314857 18:0.228545 19:0.266899 20:0.249999 21:0.388445 
-20 1:0 2:1 3:0 4:0 5:1 6:0 7:1 8:0.285714 9:0 10:0 11:0.285714 12:0 13:0 14:0.420195 15:0.394676 16:0.245145 17:0.272917 18:0.168451 19:0.248655 20:0.249999 21:0.139765 
-20 1:0 2:1 3:0 4:0 5:1 6:0 7:1 8:0.444444 9:0 10:0 11:0.444444 12:0 13:0 14:0.646259 15:0.567527 16:0.388256 17:0.719757 18:0.741716 19:0.734502 20:0.499999 21:0.156698 
20 1:0 2:1 3:0 4:0 5:1 6:0 7:1 8:0.25 9:0 10:0 11:0.25 12:0 13:0 14:0.559934 15:0.298176 16:0.245091 17:0.485545 18:0.455457 19:0.525673 20:0.399999 21:0.414523 
-20 1:0 2:1 3:0 4:0 5:1 6:0 7:1 8:0.285714 9:0 10:0 11:0.571429 12:0 13:0 14:0.853659 15:0.369243 16:0.533343 17:0.826162 18:0.81199 19:0.668814 20:0.249999 21:0.191278 
20 1:0 2:1 3:0 4:0 5:1 6:0 7:1 8:0.4 9:0 10:1 11:0.4 12:0 13:1 14:0.506543 15:0.464085 16:0.289948 17:0.328999 18:0.115201 19:0.205054 20:0.333332 21:0.414295 
20 1:0 2:1 3:0 4:0 5:1 6:0 7:1 8:0.592593 9:0.24 10:0.086957 11:0.592593 12:0.24 13:0.086957 14:0.780412 15:0.613502 16:0.600753 17:0.861624 18:0.817289 19:0.705304 20:0.071429 21:0.0456 
-20 1:0 2:1 3:0 4:0 5:1 6:0 7:1 8:0.285714 9:0 10:0 11:0.285714 12:0 13:0 14:0.47619 15:0.46186 16:0.221044 17:0.373318 18:0.22208 19:0.161282 20:0.249999 21:0.411382 
-20 1:0 2:1 3:0 4:0 5:1 6:0 7:1 8:0 9:0 10:0 11:0 12:0 13:0 14:0.30303 15:0.255739 16:0 17:0.253863 18:0.198721 19:0.270059 20:0 21:0.288601 
20 1:0 2:1 3:0 4:0 5:1 6:0 7:1 8:0 9:0 10:0 11:0 12:0 13:0 14:0.211041 15:0.23651 16:0 17:0.450646 18:0.435704 19:0.218706 20:0.249999 21:0.23787 
20 1:0 2:1 3:0 4:0 5:1 6:0 7:1 8:0.285714 9:0 10:0 11:0.285714 12:0 13:0 14:0.478261 15:0.405501 16:0.230549 17:0.489016 18:0.547284 19:0.226176 20:0.249999 21:0.10336 
20 1:0 2:1 3:0 4:0 5:1 6:0 7:1 8:0.25 9:0 10:0 11:0.25 12:0 13:0 14:0.350983 15:0.359221 16:0.190895 17:0.189127 18:0.080395 19:0.137534 20:0.399999 21:0.374077 
-20 1:0 2:1 3:0 4:0 5:1 6:0 7:1 8:0.222222 9:0 10:0 11:0.222222 12:0 13:0 14:0.471033 15:0.481912 16:0.221313 17:0.510506 18:0.512946 19:0.358603 20:0.2 21:0.165794 
20 1:0 2:1 3:0 4:0 5:1 6:0 7:1 8:0.444444 9:0 10:0 11:0.666667 12:0.285714 13:0 14:0.736399 15:0.465835 16:0.730693 17:0.749543 18:0.835724 19:0.857978 20:0.2 21:0.199105 
-20 1:0 2:1 3:0 4:0 5:1 6:0 7:1 8:0.461538 9:0.181818 10:0 11:0.615385 12:0.181818 13:0 14:0.696527 15:0.450509 16:0.624437 17:0.746046 18:0.728348 19:0.636915 20:0.375 21:0.170312 
20 1:0 2:1 3:0 4:0 5:1 6:0 7:1 8:0.4 9:0 10:0 11:0.4 12:0 13:0 14:0.589147 15:0.516766 16:0.368801 17:0.582514 18:0.586495 19:0.397308 20:0.333333 21:0.276701 
-20 1:0 2:1 3:0 4:0 5:1 6:0 7:1 8:0.5 9:0 10:0 11:0.75 12:0.333333 13:0 14:0.823529 15:0.481657 16:0.772708 17:0.870324 18:0.887752 19:0.904683 20:0.399999 21:0.297496 
20 1:0 2:1 3:0 4:0 5:1 6:0 7:1 8:0.181818 9:0 10:0 11:0.181818 12:0 13:0 14:0.355412 15:0.242795 16:0.184131 17:0.438671 18:0.345005 19:0.341265 20:0.166666 21:0.148612 
-20 1:0 2:1 3:0 4:0 5:1 6:0 7:1 8:0 9:0 10:0 11:0 12:0 13:0 14:0.452232 15:0.254613 16:0 17:0.183474 18:0.141819 19:0.032094 20:0 21:0.009969 
20 1:0 2:1 3:0 4:0 5:1 6:0 7:1 8:0.25 9:0 10:0 11:0.25 12:0 13:0 14:0.384671 15:0.357914 16:0.192791 17:0.167898 18:0.074438 19:0.172615 20:0 21:0.080231 
-20 1:0 2:1 3:0 4:0 5:1 6:0 7:1 8:0.285714 9:0 10:0 11:0.285714 12:0 13:0 14:0.478261 15:0.289584 16:0.255057 17:0.406322 18:0.327725 19:0.302507 20:0.249999 21:0.282877 
20 1:0 2:1 3:0 4:0 5:1 6:0 7:1 8:0.285714 9:0 10:0 11:0.285714 12:0 13:0 14:0.425624 15:0.430746 16:0.250042 17:0.146258 18:0.105357 19:0.190948 20:0.249999 21:0.529296 
20 1:0 2:1 3:0 4:0 5:1 6:0 7:1 8:0.285714 9:0 10:0 11:0.285714 12:0 13:0 14:0.457207 15:0.361074 16:0.203446 17:0.184917 18:0.074021 19:0.109729 20:0.249999 21:0.418037 
20 1:0 2:1 3:0 4:0 5:1 6:0 7:1 8:0.222222 9:0 10:0 11:0.222222 12:0 13:0 14:0.353184 15:0.229007 16:0.180752 17:0.276174 18:0.175564 19:0.183731 20:0.2 21:0.084573 
-20 1:0 2:1 3:0 4:0 5:1 6:0 7:1 8:0.2 9:0 10:0 11:0.2 12:0 13:0 14:0.426378 15:0.365126 16:0.20927 17:0.562386 18:0.540768 19:0.404803 20:0.333333 21:0.108887 
20 1:0 2:1 3:0 4:0 5:1 6:0 7:1 8:0.25 9:0 10:0 11:0.25 12:0 13:0 14:0.618687 15:0.322101 16:0.267941 17:0.490699 18:0.540997 19:0.612189 20:0 21:0.177013 
-20 1:0 2:1 3:0 4:0 5:1 6:0 7:1 8:0.285714 9:0 10:0 11:0.285714 12:0 13:0 14:0.444075 15:0.310988 16:0.21741 17:0.292869 18:0.163734 19:0.16735 20:0.249999 21:0.495195 
20 1:0 2:1 3:0 4:0 5:1 6:0 7:1 8:0 9:0 10:1 11:0 12:0 13:1 14:0.17045 15:0.266182 16:0 17:0.098152 18:0.064731 19:0.009117 20:0.333332 21:0.218757 
-20 1:0 2:1 3:0 4:0 5:1 6:0 7:1 8:0 9:0 10:0 11:0 12:0 13:0 14:0.26456 15:0.22513 16:0 17:0.352078 18:0.308496 19:0.166298 20:0.249999 21:0.342403 
-20 1:0 2:1 3:0 4:0 5:1 6:0 7:1 8:0.333333 9:0 10:0 11:0.333333 12:0 13:0 14:0.460843 15:0.40589 16:0.248143 17:0.662874 18:0.610143 19:0.421124 20:0 21:0.221543 
20 1:0 2:1 3:0 4:0 5:1 6:0 7:1 8:0.444444 9:0 10:0 11:0.444444 12:0 13:0 14:0.563636 15:0.395002 16:0.457785 17:0.650427 18:0.706238 19:0.597705 20:0.2 21:0.21521 
20 1:0 2:1 3:0 4:0 5:1 6:0 7:1 8:0 9:0 10:1 11:0 12:0 13:1 14:0.25 15:0.329639 16:0 17:0.001762 18:0.000317 19:0.013488 20:0 21:0.049816 
-20 1:0 2:1 3:0 4:0 5:1 6:0 7:1 8:0 9:0 10:0 11:0 12:0 13:0 14:0.28159 15:0.334397 16:0 17:0.26309 18:0.251259 19:0.221252 20:0 21:0.192879 
20 1:0 2:1 3:0 4:0 5:1 6:0 7:1 8:0 9:0 10:0 11:0 12:0 13:0 14:0.233429 15:0.25148 16:0 17:0.218341 18:0.198426 19:0.28979 20:0.249999 21:0.263981 
-20 1:0 2:1 3:0 4:0 5:1 6:0 7:1 8:0.25 9:0 10:0 11:0.25 12:0 13:0 14:0.534527 15:0.396882 16:0.191566 17:0.541525 18:0.488922 19:0.222399 20:0.399999 21:0.442126 
20 1:0 2:1 3:0 4:0 5:1 6:0 7:1 8:0.25 9:0 10:0 11:0.25 12:0 13:0 14:0.495495 15:0.48026 16:0.236163 17:0.391104 18:0.294498 19:0.267907 20:0.399999 21:0.226454 
-20 1:0 2:1 3:0 4:0 5:1 6:0 7:1 8:0 9:0 10:0 11:0 12:0 13:0 14:0.294275 15:0.301859 16:0 17:0.051203 18:0.06976 19:0.006614 20:0.249999 21:0.023373 
-20 1:0 2:1 3:0 4:0 5:1 6:0 7:1 8:0.307692 9:0 10:0 11:0.461538 12:0.181818 13:0 14:0.6199 15:0.356846 16:0.542263 17:0.484633 18:0.619914 19:0.646047 20:0.375 21:0.193958 
20 1:0 2:1 3:0 4:0 5:1 6:0 7:1 8:0.666667 9:0 10:0 11:0.666667 12:0 13:0 14:0.833333 15:0.610509 16:0.683757 17:0.798707 18:0.819515 19:0.7522 20:0 21:0.143521 
-10.40082114008893 1:0 2:1 3:0 4:0 5:1 6:0 7:1 8:0.25 9:0 10:0 11:0.25 12:0 13:0 14:0.373467 15:0.339014 16:0.167405 17:0.679969 18:0.650604 19:0.667188 20:0 21:0.0254 
-20 1:0 2:1 3:0 4:0 5:1 6:0 7:1 8:0.285714 9:0 10:0 11:0.285714 12:0 13:0 14:0.483357 15:0.424629 16:0.257942 17:0.477789 18:0.468044 19:0.408873 20:0.249999 21:0.240857 
-20 1:0 2:1 3:0 4:0 5:1 6:0 7:1 8:0.285714 9:0 10:0 11:0.285714 12:0 13:0 14:0.49061 15:0.36237 16:0.210281 17:0.296393 18:0.206329 19:0.222729 20:0.249999 21:0.260501 
20 1:0 2:1 3:0 4:0 5:1 6:0 7:1 8:0 9:0 10:0 11:0 12:0 13:0 14:0.25 15:0.121716 16:0 17:0.186402 18:0.115332 19:0.001065 20:0.249999 21:0.151836 
-20 1:0 2:1 3:0 4:0 5:1 6:0 7:1 8:0.333333 9:0 10:0 11:0.333333 12:0 13:0 14:0.442265 15:0.405209 16:0.241441 17:0.922908 18:0.912852 19:0.64626 20:0 21:0.166167 
20 1:0 2:1 3:0 4:0 5:1 6:0 7:1 8:0.5 9:0 10:0 11:0.5 12:0 13:0 14:0.695481 15:0.449547 16:0.550301 17:0.72689 18:0.738144 19:0.740365 20:0.499999 21:0.518253 
10.76927813545548 1:0 2:1 3:0 4:0 5:1 6:0 7:1 8:0.181818 9:0 10:0 11:0.181818 12:0 13:0 14:0.643275 15:0.275895 16:0.155939 17:0.578845 18:0.579845 19:0.575451 20:0.428571 21:0.530516 
20 1:0 2:1 3:0 4:0 5:1 6:0 7:1 8:0.571429 9:0 10:0 11:0.571429 12:0 13:0 14:0.933333 15:0.403876 16:0.481849 17:0.668874 18:0.656577 19:0.514717 20:0.249999 21:0.031018 
-20 1:0 2:1 3:0 4:0 5:1 6:0 7:1 8:0 9:0 10:0 11:0 12:0 13:0 14:0.202074 15:0 16:0 17:0.201969 18:0.169787 19:0.106898 20:0.399999 21:0.146937 
20 1:0 2:1 3:0 4:0 5:1 6:0 7:1 8:0.25 9:0 10:0 11:0.25 12:0 13:0 14:0.645161 15:0.311862 16:0.265269 17:0.76375 18:0.794753 19:0.57604 20:0 21:0.082818 
-20 1:0 2:1 3:0 4:0 5:1 6:0 7:1 8:0.181818 9:0 10:0 11:0.181818 12:0 13:0 14:0.532882 15:0.246853 16:0.123214 17:0.56794 18:0.544076 19:0.567477 20:0.166666 21:0.09207 
-20 1:0 2:1 3:0 4:0 5:1 6:0 7:1 8:0.222222 9:0 10:0 11:0.222222 12:0 13:0 14:0.603666 15:0.33829 16:0.168643 17:0.651676 18:0.628921 19:0.299275 20:0.2 21:0.358882 
-20 1:0 2:1 3:0 4:0 5:1 6:0 7:1 8:0.4 9:0 10:0 11:0.6 12:0.25 13:0 14:0.807692 15:0.344597 16:0.594694 17:0.791355 18:0.775987 19:0.745476 20:0.333333 21:0.37632 
10.26518912386258 1:0 2:1 3:0 4:0 5:1 6:0 7:1 8:0.25 9:0 10:0 11:0.25 12:0 13:0 14:0.455285 15:0.382058 16:0.208459 17:0.694478 18:0.702098 19:0.446596 20:0.399999 21:0.191114 
-20 1:0 2:1 3:0 4:0 5:1 6:0 7:1 8:0.666667 9:0 10:0 11:0.888889 12:0.285714 13:0 14:0.928571 15:0.62945 16:0.876339 17:0.931509 18:0.92131 19:0.905476 20:0.2 21:0.244532 
20 1:0 2:1 3:0 4:0 5:1 6:0 7:1 8:0.285714 9:0 10:0 11:0.285714 12:0 13:0 14:0.55 15:0.388128 16:0.238131 17:0.409133 18:0.338694 19:0.367182 20:0.249999 21:0.33996 
20 1:0 2:1 3:0 4:0 5:1 6:0 7:1 8:0.25 9:0 10:0 11:0.25 12:0 13:0 14:0.537313 15:0.352996 16:0.229398 17:0.539463 18:0.522273 19:0.277923 20:0.399999 21:0.272525 
20 1:0 2:1 3:0 4:0 5:1 6:0 7:1 8:0.333333 9:0 10:0 11:0.666667 12:0.5 13:0 14:0.833333 15:0.196611 16:0.596648 17:0.872403 18:0.821601 19:0.754918 20:0 21:0.139337 
-20 1:0 2:1 3:0 4:0 5:1 6:0 7:1 8:0.2 9:0 10:0 11:0.4 12:0 13:0 14:0.52 15:0.128681 16:0.382381 17:0.592418 18:0.582076 19:0.42372 20:0 21:0.132926 
20 1:0 2:1 3:0 4:0 5:1 6:0 7:1 8:0.444444 9:0 10:0 11:0.444444 12:0 13:0 14:0.574096 15:0.565929 16:0.436326 17:0.667004 18:0.713011 19:0.34505 20:0.499999 21:0.382024 
20 1:0 2:1 3:0 4:0 5:1 6:0 7:1 8:0.545455 9:0.222222 10:0 11:0.545455 12:0.222222 13:0 14:0.697422 15:0.527283 16:0.580068 17:0.74928 18:0.798291 19:0.734871 20:0.624999 21:0.563542 
-20 1:0 2:1 3:0 4:0 5:1 6:0 7:1 8:0.285714 9:0 10:0 11:0.857143 12:0.8 13:0.666667 14:0.896552 15:0.193826 16:0.879724 17:0.905838 18:0.934574 19:0.922841 20:0.249999 21:0.277628 
-20 1:0 2:1 3:0 4:0 5:1 6:0 7:1 8:0.285714 9:0 10:0 11:0.285714 12:0 13:0 14:0.447005 15:0.437124 16:0.245249 17:0.258996 18:0.18637 19:0.234587 20:0.249999 21:0.209708 
20 1:0 2:1 3:0 4:0 5:1 6:0 7:1 8:0.25 9:0 10:0 11:0.25 12:0 13:0 14:0.497238 15:0.407804 16:0.299009 17:0.534794 18:0.622556 19:0.540728 20:0.399999 21:0.263085 
-20 1:0 2:1 3:0 4:0 5:1 6:0 7:1 8:0.4 9:0.25 10:0 11:0.4 12:0.25 13:0 14:0.546875 15:0.435332 16:0.492978 17:0.671524 18:0.757136 19:0.669563 20:0.333333 21:0.107823 
20 1:0 2:1 3:0 4:0 5:1 6:0 7:1 8:0.222222 9:0 10:0 11:0.222222 12:0 13:0 14:0.473071 15:0.359349 16:0.179397 17:0.511847 18:0.424896 19:0.261983 20:0.2 21:0.201274 
-20 1:0 2:1 3:0 4:0 5:1 6:0 7:1 8:0.222222 9:0 10:0 11:0.222222 12:0 13:0 14:0.422696 15:0.372947 16:0.195616 17:0.173823 18:0.097539 19:0.149305 20:0.2 21:0.234123 
-20 1:0 2:1 3:0 4:0 5:1 6:0 7:1 8:0.333333 9:0 10:0 11:0.666667 12:0.5 13:0 14:0.777778 15:0.302522 16:0.615455 17:0.914339 18:0.892755 19:0.888812 20:0 21:0.118318 
20 1:0 2:1 3:0 4:0 5:1 6:0 7:1 8:0.333333 9:0.2 10:0 11:0.5 12:0.2 13:0 14:0.667166 15:0.498641 16:0.576836 17:0.697336 18:0.798523 19:0.661178 20:0.499999 21:0.369925 
20 1:0 2:1 3:0 4:0 5:1 6:0 7:1 8:0.4 9:0 10:0 11:0.4 12:0 13:0 14:0.573591 15:0.428548 16:0.401137 17:0.688185 18:0.761163 19:0.632495 20:0.333333 21:0.396737 
20 1:0 2:1 3:0 4:0 5:1 6:0 7:1 8:0.25 9:0 10:0 11:0.25 12:0 13:0 14:0.531046 15:0.351848 16:0.215575 17:0.551086 18:0.594727 19:0.483205 20:0 21:0.220206 
-18.17241662960855 1:0 2:1 3:0 4:0 5:1 6:0 7:1 8:0 9:0 10:0 11:0 12:0 13:0 14:0.153196 15:0.195207 16:0 17:0.32064 18:0.340957 19:0.0685 20:0.249999 21:0.218734 
17.03677259445854 1:0 2:1 3:0 4:1.098612 5:1 6:0 7:1 8:0.2 9:0 10:0 11:0.2 12:0 13:0 14:0.389854 15:0.323452 16:0.209596 17:0.394832 18:0.397648 19:0.274785 20:0.571428 21:0.457763 
20 1:0 2:1 3:0 4:0 5:1 6:0 7:1 8:0.2 9:0 10:0 11:0.2 12:0 13:0 14:0.343826 15:0.295862 16:0.168635 17:0.343311 18:0.268718 19:0.294069 20:0 21:0.02046 
-20 1:0 2:1 3:0 4:0 5:1 6:0 7:1 8:0.352941 9:0 10:0 11:0.352941 12:0 13:0 14:0.622222 15:0.393322 16:0.365029 17:0.715981 18:0.799316 19:0.604503 20:0.3 21:0.344528 
-20 1:0 2:1 3:0 4:0 5:1 6:0 7:1 8:0.285714 9:0 10:0 11:0.285714 12:0 13:0 14:0.546379 15:0.401231 16:0.284598 17:0.655673 18:0.727263 19:0.49274 20:0.249999 21:0.182218 
-20 1:0 2:1 3:0 4:0 5:1 6:0 7:1 8:0.222222 9:0 10:0 11:0.222222 12:0 13:0 14:0.560831 15:0.355864 16:0.215787 17:0.405101 18:0.401062 19:0.255551 20:0.2 21:0.160959 
-20 1:0 2:1 3:0 4:0 5:1 6:0 7:1 8:0.4 9:0.25 10:0 11:0.4 12:0.25 13:0 14:0.619713 15:0.354585 16:0.408582 17:0.736253 18:0.732936 19:0.520539 20:0 21:0.233599 
-20 1:0 2:1 3:0 4:0 5:1 6:0 7:1 8:0.333333 9:0 10:0 11:0.333333 12:0 13:0 14:0.473655 15:0.274229 16:0.370635 17:0.748294 18:0.817876 19:0.777196 20:0.499999 21:0.530805 
20 1:0 2:1 3:0 4:0 5:1 6:0 7:1 8:0.363636 9:0 10:0 11:0.363636 12:0 13:0 14:0.572323 15:0.386309 16:0.331677 17:0.519149 18:0.475068 19:0.375206 20:0.428571 21:0.445437 
-20 1:0 2:1 3:0 4:0 5:1 6:0 7:1 8:0.4 9:0 10:0 11:0.4 12:0 13:0 14:0.595284 15:0.352915 16:0.347766 17:0.693203 18:0.641132 19:0.42525 20:0.333333 21:0.287902 
20 1:0 2:1 3:0 4:0 5:1 6:0 7:1 8:0 9:0 10:0 11:0 12:0 13:0 14:0.217352 15:0.193301 16:0 17:0.283322 18:0.313687 19:0.23185 20:0 21:0.019679 
-20 1:0 2:1 3:0 4:0 5:1 6:0 7:1 8:0.333333 9:0 10:0 11:0.333333 12:0 13:0 14:0.503568 15:0.31971 16:0.267853 17:0.502492 18:0.463907 19:0.549651 20:0 21:0.18384 
-20 1:0 2:1 3:0 4:0 5:1 6:0 7:1 8:0.333333 9:0 10:0 11:0.333333 12:0 13:0 14:0.541311 15:0.331709 16:0.253399 17:0.36666 18:0.238057 19:0.209814 20:0 21:0.173409 
20 1:0 2:1 3:0 4:0 5:1 6:0 7:1 8:0.307692 9:0 10:0 11:0.307692 12:0.181818 13:0 14:0.651652 15:0.31482 16:0.300436 17:0.728549 18:0.73509 19:0.640107 20:0.142857 21:0.356101 
-20 1:0 2:1 3:0 4:0 5:1 6:0 7:1 8:0.166667 9:0 10:0 11:0.166667 12:0 13:0 14:0.405523 15:0.352275 16:0.271574 17:0.626778 18:0.731567 19:0.679063 20:0.285714 21:0.010646 
20 1:0 2:1 3:0 4:0 5:1 6:0 7:1 8:0.25 9:0 10:0 11:0.25 12:0 13:0 14:0.372745 15:0.285664 16:0.173538 17:0.170072 18:0.003114 19:0.136441 20:0.399999 21:0.45487 
-20 1:0 2:1 3:0 4:0 5:1 6:0 7:1 8:0.2 9:0 10:0 11:0.2 12:0 13:0 14:0.562414 15:0.315362 16:0.183183 17:0.570425 18:0.514032 19:0.41843 20:0.333333 21:0.105155 
-20 1:0 2:1 3:0 4:0 5:1 6:0 7:1 8:0.25 9:0 10:0 11:0.5 12:0.333333 13:0 14:0.588235 15:0.214211 16:0.576915 17:0.568187 18:0.712599 19:0.735903 20:0.399999 21:0.052421 
20 1:0 2:1 3:0 4:0 5:1 6:0 7:1 8:0 9:0 10:0 11:0 12:0 13:0 14:0.239016 15:0.17196 16:0 17:0.106181 18:0.055761 19:0.102346 20:0.333333 21:0.390111 
20 1:0 2:1 3:0 4:0 5:1 6:0 7:1 8:0 9:0 10:0 11:0 12:0 13:0 14:0.329665 15:0.181868 16:0 17:0.298174 18:0.238724 19:0.106233 20:0 21:0.117102 
20 1:0 2:1 3:0 4:0 5:1 6:0 7:1 8:0.5 9:0 10:0 11:0.5 12:0 13:0 14:0.640244 15:0.587807 16:0.563793 17:0.630998 18:0.697067 19:0.695398 20:0 21:0.114546 
-20 1:0 2:1 3:0 4:0 5:1 6:0 7:1 8:0.285714 9:0 10:0 11:0.285714 12:0 13:0 14:0.456753 15:0.272489 16:0.235644 17:0.296643 18:0.132367 19:0.184366 20:0.249999 21:0.069216 
-18.46927855947705 1:0 2:1 3:0 4:0 5:1 6:0 7:1 8:0 9:0 10:0 11:0 12:0 13:0 14:0.251227 15:0.326369 16:0 17:0.004162 18:0.012799 19:0.076583 20:0 21:0.126785 
-20 1:0 2:1 3:0 4:0 5:1 6:0 7:1 8:0.333333 9:0 10:0 11:0.333333 12:0 13:0 14:0.487659 15:0.42325 16:0.280148 17:0.353678 18:0.272867 19:0.20701 20:0 21:0.081156 
20 1:0 2:1 3:0 4:0 5:1 6:0 7:1 8:0 9:0 10:0 11:0 12:0 13:0 14:0.261111 15:0.243238 16:0 17:0.009003 18:0.022412 19:0.099974 20:0 21:0.119763 
-20 1:0 2:1 3:0 4:0 5:1 6:0 7:1 8:0.363636 9:0 10:0 11:0.363636 12:0 13:0 14:0.583 15:0.465095 16:0.400894 17:0.467626 18:0.552792 19:0.517537 20:0.166666 21:0.057098 
-20 1:0 2:1 3:0 4:0 5:1 6:0 7:1 8:0.333333 9:0 10:1 11:0.333333 12:0 13:1 14:0.459957 15:0.28515 16:0.275872 17:0.372007 18:0.260972 19:0.340574 20:0.499999 21:0.535548 
-20 1:0 2:1 3:0 4:0 5:1 6:0 7:1 8:0.75 9:0 10:0 11:1 12:0.333333 13:0 14:1 15:0.72737 16:1 17:1 18:1 19:1 20:0 21:0.01852 
20 1:0 2:1 3:0 4:0 5:1 6:0 7:1 8:0 9:0 10:0 11:0 12:0 13:0 14:0.209236 15:0.258996 16:0 17:0.769005 18:0.796343 19:0.399872 20:0.399999 21:0.353867 
-20 1:0 2:1 3:0 4:0 5:1 6:0 7:1 8:0 9:0 10:0 11:0 12:0 13:0 14:0.510204 15:0.105515 16:0 17:0.257587 18:0.259038 19:0.120975 20:0 21:0.168902 
20 1:0 2:1 3:0 4:0 5:1 6:0 7:1 8:0 9:0 10:0 11:0.222222 12:0 13:0 14:0.481481 15:0.160929 16:0.215657 17:0.542389 18:0.523924 19:0.422862 20:0.2 21:0.321523 
20 1:0 2:1 3:0 4:0 5:1 6:0 7:1 8:0.222222 9:0 10:0 11:0.222222 12:0 13:0 14:0.35494 15:0.310693 16:0.176987 17:0.17588 18:0.094292 19:0.087222 20:0.499999 21:0.191467 
-20 1:0 2:1 3:0 4:0 5:1 6:0 7:1 8:0.4 9:0.25 10:0 11:0.6 12:0.5 13:0.333333 14:0.747727 15:0.342254 16:0.603008 17:0.774476 18:0.799476 19:0.65719 20:0.333333 21:0.435543 
-20 1:0 2:1 3:0 4:0 5:1 6:0 7:1 8:0.25 9:0 10:0 11:0.25 12:0 13:0 14:0.429836 15:0.389852 16:0.315376 17:0.417174 18:0.530185 19:0.499475 20:0.399999 21:0.310539 
20 1:0 2:1 3:0 4:0 5:1 6:0 7:1 8:0 9:0 10:0 11:0.25 12:0 13:0 14:0.4875 15:0.119387 16:0.351423 17:0.299179 18:0.47514 19:0.443171 20:0 21:0.204805 
20 1:0 2:1 3:0 4:0 5:1 6:0 7:1 8:0.222222 9:0 10:0 11:0.444444 12:0 13:0 14:0.537316 15:0.183288 16:0.481451 17:0.651444 18:0.691795 19:0.604369 20:0.2 21:0.002186 
20 1:0 2:1 3:0 4:0 5:1 6:0 7:1 8:0.444444 9:0 10:0 11:0.666667 12:0 13:0 14:0.750442 15:0.442224 16:0.63459 17:0.916579 18:0.940654 19:0.887888 20:0.2 21:0.134145 
-10.10917678777873 1:0 2:1 3:0 4:0 5:1 6:0 7:1 8:0 9:0 10:0 11:0 12:0 13:0 14:0.313069 15:0.217396 16:0 17:0.002044 18:0.009019 19:0.001357 20:0.249999 21:0.024646 
20 1:0 2:1 3:0 4:0 5:1 6:0 7:1 8:0 9:0 10:0 11:0 12:0 13:0 14:0.27957 15:0.228205 16:0 17:0.35583 18:0.455711 19:0.208431 20:0.249999 21:0.091191 
20 1:0 2:1 3:0 4:0 5:1 6:0 7:1 8:0.363636 9:0 10:0 11:0.363636 12:0 13:0 14:0.625369 15:0.266919 16:0.392319 17:0.757375 18:0.810337 19:0.656793 20:0.166666 21:0.208902 
20 1:0 2:1 3:0 4:0 5:1 6:0 7:1 8:0.285714 9:0 10:0 11:0.285714 12:0 13:0 14:0.514541 15:0.3179 16:0.313631 17:0.461289 18:0.459873 19:0.503726 20:0.249999 21:0.162704 
20 1:0 2:1 3:0 4:0 5:1 6:0 7:1 8:0.285714 9:0 10:0 11:0.285714 12:0 13:0 14:0.357143 15:0.303552 16:0.270483 17:0.456096 18:0.397147 19:0.438694 20:0.249999 21:0.163413 
-20 1:0 2:1 3:0 4:0 5:1 6:0 7:1 8:0.285714 9:0 10:0 11:0.285714 12:0 13:0 14:0.476246 15:0.454752 16:0.219579 17:0.47461 18:0.359191 19:0.16244 20:0.249999 21:0.326246 
-20 1:0 2:1 3:0 4:0 5:1 6:0 7:1 8:0 9:0 10:0 11:0 12:0 13:0 14:0.239289 15:0.211097 16:0 17:0.400413 18:0.403687 19:0.07156 20:0.249999 21:0.210777 
-20 1:0 2:1 3:0 4:0 5:1 6:0 7:1 8:0 9:0 10:0 11:0 12:0 13:0 14:0.267062 15:0.256705 16:0 17:0.174043 18:0.083078 19:0.213495 20:0.399999 21:0.430134 
20 1:0 2:1 3:0 4:0 5:1 6:0 7:1 8:0.2 9:0 10:0 11:0.2 12:0 13:0 14:0.638298 15:0.192116 16:0.269475 17:0.635544 18:0.750089 19:0.472821 20:0.333333 21:0.114006 
-20 1:0 2:1 3:0 4:0 5:1 6:0 7:1 8:0.333333 9:0 10:0 11:0.333333 12:0 13:0 14:0.483785 15:0.273723 16:0.247011 17:0.312676 18:0.178022 19:0.144433 20:0 21:0.326941 
-20 1:0 2:1 3:0 4:0 5:1 6:0 7:1 8:0.333333 9:0 10:0 11:0.333333 12:0 13:0 14:0.498457 15:0.423505 16:0.342975 17:0.369459 18:0.250094 19:0.289289 20:0 21:0.080257 
20 1:0 2:1 3:0 4:0 5:1 6:0 7:1 8:0.181818 9:0 10:0 11:0.181818 12:0 13:0 14:0.394203 15:0.236394 16:0.172735 17:0.431957 18:0.4799 19:0.366764 20:0.624999 21:0.010585 
-20 1:0 2:1 3:0 4:0 5:1 6:0 7:1 8:0.25 9:0 10:0 11:0.5 12:0.333333 13:0 14:0.666667 15:0.275003 16:0.534287 17:0.71983 18:0.79623 19:0.792895 20:0.399999 21:0.25666 
-20 1:0 2:1 3:0 4:0 5:1 6:0 7:1 8:0.363636 9:0.222222 10:0 11:0.363636 12:0.222222 13:0 14:0.543424 15:0.439059 16:0.306933 17:0.680426 18:0.652701 19:0.528728 20:0.428571 21:0.579061 
20 1:0 2:1 3:0 4:0 5:1 6:0 7:1 8:0.4 9:0 10:1 11:0.4 12:0 13:1 14:0.65625 15:0.263091 16:0.444571 17:0.455059 18:0.532173 19:0.496275 20:0.333332 21:0.095214 
13.98396743997378 1:0 2:1 3:0 4:0 5:1 6:0 7:1 8:0.4 9:0 10:1 11:0.4 12:0 13:1 14:0.572289 15:0.35199 16:0.312048 17:0.409897 18:0.26278 19:0.20852 20:0.333332 21:0.15033 
20 1:0 2:1 3:0 4:0 5:1 6:0 7:1 8:0.4 9:0 10:0 11:0.4 12:0 13:0 14:0.597143 15:0.542512 16:0.429918 17:0.716714 18:0.771306 19:0.635103 20:0.333333 21:0.192889 
20 1:0 2:1 3:0 4:0 5:1 6:0 7:1 8:0.2 9:0 10:0 11:0.2 12:0 13:0 14:0.376198 15:0.287367 16:0.156002 17:0.262233 18:0.191833 19:0.145496 20:0 21:0.239637 
20 1:0 2:1 3:0 4:0 5:1 6:0 7:1 8:0.421053 9:0.117647 10:0 11:0.526316 12:0.117647 13:0 14:0.702325 15:0.352236 16:0.551057 17:0.785177 18:0.78359 19:0.703726 20:0.1 21:0.015236 
20 1:0 2:1 3:0 4:0 5:1 6:0 7:1 8:0.285714 9:0 10:1 11:0.571429 12:0.4 13:1 14:0.630137 15:0.227377 16:0.614343 17:0.627983 18:0.667916 19:0.689291 20:0.599999 21:0.432653 
-20 1:0 2:1 3:0 4:0 5:1 6:0 7:1 8:0 9:0 10:1 11:0 12:0 13:1 14:0.248889 15:0.140199 16:0 17:0.152066 18:0.149473 19:0.011886 20:0.499999 21:0.468724 
20 1:0 2:1 3:0 4:0 5:1 6:0 7:1 8:0.25 9:0 10:0 11:0.25 12:0 13:0 14:0.537313 15:0.519162 16:0.323585 17:0.604536 18:0.692076 19:0.481383 20:0.399999 21:0.269132 
20 1:0 2:1 3:0 4:0 5:1 6:0 7:1 8:0 9:0 10:0 11:0 12:0 13:0 14:0.232472 15:0.107103 16:0 17:0.2369 18:0.28637 19:0.018267 20:0.249999 21:0.034701 
20 1:0 2:1 3:0 4:0 5:1 6:0 7:1 8:0 9:0 10:0 11:0 12:0 13:0 14:0.260654 15:0.195993 16:0 17:0.286385 18:0.18973 19:0.110237 20:0 21:0.214532 
20 1:0 2:1 3:0 4:0 5:1 6:0 7:1 8:0.333333 9:0 10:0 11:0.333333 12:0 13:0 14:0.537468 15:0.351739 16:0.278985 17:0.709356 18:0.646031 19:0.362056 20:0 21:0.235046 
20 1:0 2:1 3:0 4:0 5:1 6:0 7:1 8:0.285714 9:0 10:0 11:0.571429 12:0.4 13:0 14:0.669257 15:0.404747 16:0.515438 17:0.744685 18:0.616309 19:0.463779 20:0.249999 21:0.363535 
20 1:0 2:1 3:0 4:0 5:1 6:0 7:1 8:0.285714 9:0 10:0 11:0.571429 12:0.4 13:0 14:0.769231 15:0.37605 16:0.509867 17:0.746209 18:0.663807 19:0.524082 20:0.249999 21:0.204804 
20 1:0 2:1 3:0 4:0 5:1 6:0 7:1 8:0.5 9:0.2 10:0 11:0.5 12:0.2 13:0 14:0.648855 15:0.433582 16:0.436506 17:0.531283 18:0.417959 19:0.397677 20:0.499999 21:0.644195 
20 1:0 2:1 3:0 4:0 5:1 6:0 7:1 8:0.25 9:0 10:0 11:0.25 12:0 13:0 14:0.614173 15:0.33736 16:0.24681 17:0.591113 18:0.672185 19:0.441946 20:0.399999 21:0.260495 
20 1:0 2:1 3:0 4:0 5:1 6:0 7:1 8:0.6 9:0 10:0 11:0.8 12:0.25 13:0 14:1 15:0.507628 16:0.744611 17:0.956996 18:0.940361 19:0.933422 20:0 21:0.039156 
20 1:0 2:1 3:0 4:0 5:1 6:0 7:1 8:0.25 9:0 10:0 11:0.25 12:0 13:0 14:0.473516 15:0.252612 16:0.228657 17:0.400651 18:0.354833 19:0.379953 20:0.399999 21:0.190495 
-20 1:0 2:1 3:0 4:0 5:1 6:0 7:1 8:0.285714 9:0 10:0 11:0.285714 12:0 13:0 14:0.44186 15:0.300123 16:0.247868 17:0.389017 18:0.292776 19:0.217086 20:0.249999 21:0.341267 
20 1:0 2:1 3:0 4:0 5:1 6:0 7:1 8:0.166667 9:0 10:0 11:0.333333 12:0.2 13:0 14:0.623728 15:0.163495 16:0.348359 17:0.556156 18:0.588685 19:0.540257 20:0.285714 21:0.372528 
20 1:0 2:1 3:0 4:0 5:1 6:0 7:1 8:0.25 9:0 10:0 11:0.25 12:0 13:0 14:0.468966 15:0.356242 16:0.295518 17:0.395667 18:0.449495 19:0.407634 20:0.399999 21:0.036133 
20 1:0 2:1 3:0 4:0 5:1 6:0 7:1 8:0.2 9:0 10:0 11:0.2 12:0 13:0 14:0.37273 15:0.295772 16:0.166816 17:0.235091 18:0.137775 19:0.249036 20:0.571428 21:0.485196 
2.075935863232523 1:0 2:1 3:0 4:0 5:1 6:0 7:1 8:0 9:0 10:0 11:0 12:0 13:0 14:0.267667 15:0.300096 16:0 17:0.006151 18:0.006107 19:0.037894 20:0.249999 21:0.306779 
-20 1:0 2:1 3:0 4:0 5:1 6:0 7:1 8:0.307692 9:0 10:0 11:0.461538 12:0 13:0 14:0.609726 15:0.224085 16:0.433288 17:0.670686 18:0.611272 19:0.558741 20:0.555555 21:0.477785 
-20 1:0 2:1 3:0 4:0 5:1 6:0 7:1 8:0 9:0 10:0 11:0 12:0 13:0 14:0.26087 15:0.108317 16:0 17:0.318651 18:0.256712 19:0.209862 20:0.285714 21:0.07459 
-20 1:0 2:1 3:0 4:0 5:1 6:0 7:1 8:0.153846 9:0 10:0 11:0.153846 12:0 13:0 14:0.38659 15:0.235494 16:0.134755 17:0.38 18:0.328646 19:0.183737 20:0.142857 21:0.285405 
-20 1:0 2:1 3:0 4:0 5:1 6:0 7:1 8:0 9:0 10:0 11:0 12:0 13:0 14:0.291533 15:0.087662 16:0 17:0.282053 18:0.23608 19:0.029694 20:0.499999 21:0.438341 
-20 1:0 2:1 3:0 4:0 5:1 6:0 7:1 8:0.333333 9:0 10:0 11:0.333333 12:0 13:0 14:0.406436 15:0.243269 16:0.213833 17:0.533126 18:0.449831 19:0.093682 20:0 21:0.012066 
20 1:0 2:1 3:0 4:0 5:1 6:0 7:1 8:0.25 9:0 10:0 11:0.25 12:0 13:0 14:0.6125 15:0.269355 16:0.221429 17:0.568624 18:0.575296 19:0.57824 20:0 21:0.229422 
16.07543861341862 1:0 2:1 3:0 4:0 5:1 6:0 7:1 8:0 9:0 10:0 11:0 12:0 13:0 14:0.288243 15:0.172035 16:0 17:0.200129 18:0.145328 19:0.215709 20:0.2 21:0.245443 
4.545614253829849 1:0 2:1 3:0 4:0 5:1 6:0 7:1 8:0.222222 9:0 10:0 11:0.222222 12:0 13:0 14:0.439394 15:0.27894 16:0.180559 17:0.328721 18:0.292704 19:0.114759 20:0.2 21:0.369627 
20 1:0 2:1 3:0 4:0 5:1 6:0 7:1 8:0.222222 9:0 10:0 11:0.222222 12:0 13:0 14:0.625 15:0.391925 16:0.265321 17:0.496578 18:0.542968 19:0.440433 20:0.499999 21:0.381152 
20 1:0 2:1 3:0 4:0 5:1 6:0 7:1 8:0.285714 9:0 10:0 11:0.285714 12:0 13:0 14:0.515926 15:0.377783 16:0.222865 17:0.344988 18:0.250265 19:0.200821 20:0.249999 21:0.173698 
8.741151943998744 1:0 2:1 3:0 4:0 5:1 6:0 7:1 8:0.363636 9:0 10:0 11:0.545455 12:0.444444 13:0.285714 14:0.716867 15:0.38837 16:0.522933 17:0.786925 18:0.779928 19:0.61772 20:0.428571 21:0.400958 
-20 1:0 2:1 3:0 4:0 5:1 6:0 7:1 8:0.333333 9:0.125 10:0 11:0.333333 12:0.125 13:0 14:0.494301 15:0.398153 16:0.324897 17:0.671215 18:0.689928 19:0.518379 20:0.363636 21:0.290336 
20 1:0 2:1 3:0 4:0 5:1 6:0 7:1 8:0 9:0 10:0 11:0 12:0 13:0 14:0.217298 15:0.208551 16:0 17:0.190749 18:0.095972 19:0.048379 20:0 21:0.331743 
20 1:0 2:1 3:0 4:0 5:1 6:0 7:1 8:0 9:0 10:0 11:0 12:0 13:0 14:0.265523 15:0.255633 16:0 17:0.043134 18:0.051117 19:0.006695 20:0 21:0.102825 
-20 1:0 2:1 3:0 4:0 5:1 6:0 7:1 8:0.2 9:0 10:0 11:0.4 12:0 13:0 14:0.622711 15:0.189885 16:0.474098 17:0.621415 18:0.716299 19:0.605015 20:0.333333 21:0.249735 
20 1:0 2:1 3:0 4:0 5:1 6:0 7:1 8:0.333333 9:0 10:1 11:0.333333 12:0 13:1 14:0.77551 15:0.336822 16:0.28339 17:0.400289 18:0.325181 19:0.356462 20:0.499999 21:0.462569 
20 1:0 2:1 3:0 4:0 5:1 6:0 7:1 8:0.222222 9:0 10:0 11:0.222222 12:0 13:0 14:0.612613 15:0.394608 16:0.226156 17:0.476701 18:0.466416 19:0.39038 20:0.2 21:0.09283 
20 1:0 2:1 3:0 4:0 5:1 6:0 7:1 8:0.25 9:0 10:0 11:0.25 12:0 13:0 14:0.669077 15:0.169032 16:0.200597 17:0.721322 18:0.727079 19:0.436255 20:0.222222 21:0.377712 
-20 1:0 2:1 3:0 4:0 5:1 6:0 7:1 8:0.333333 9:0 10:0 11:0.333333 12:0 13:0 14:0.552989 15:0.290739 16:0.276172 17:0.566212 18:0.475599 19:0.275947 20:0.499999 21:0.59151 
20 1:0 2:1 3:0 4:0 5:1 6:0 7:1 8:0.25 9:0 10:0 11:0.25 12:0 13:0 14:0.488355 15:0.295892 16:0.270518 17:0.514941 18:0.518222 19:0.489734 20:0.399999 21:0.489676 
20 1:0 2:1 3:0 4:0 5:1 6:0 7:1 8:0.352941 9:0 10:0 11:0.470588 12:0 13:0 14:0.631881 15:0.377657 16:0.455772 17:0.715968 18:0.741625 19:0.60964 20:0.111111 21:0.49001 
20 1:0 2:1 3:0 4:0 5:1 6:0 7:1 8:0.307692 9:0 10:0 11:0.307692 12:0 13:0 14:0.608187 15:0.285863 16:0.341982 17:0.584053 18:0.6231 19:0.600463 20:0.142857 21:0.051618 
-20 1:0 2:1 3:0 4:0 5:1 6:0 7:1 8:0.285714 9:0 10:0 11:0.285714 12:0 13:0 14:0.509934 15:0.352201 16:0.347638 17:0.422304 18:0.469727 19:0.425807 20:0.249999 21:0.313372 
-20 1:0 2:1 3:0 4:0 5:1 6:0 7:1 8:0 9:0 10:0 11:0.333333 12:0 13:0 14:0.466667 15:0.120869 16:0.319913 17:0.444628 18:0.427826 19:0.354265 20:0 21:0.105677 
20 1:0 2:1 3:0 4:0 5:1 6:0 7:1 8:0.222222 9:0 10:0 11:0.222222 12:0 13:0 14:0.438202 15:0.325197 16:0.300816 17:0.496385 18:0.602382 19:0.47923 20:0.2 21:0.265981 
20 1:0 2:1 3:0 4:0 5:1 6:0 7:1 8:0.5 9:0.142857 10:0 11:0.5 12:0.142857 13:0 14:0.629198 15:0.486485 16:0.500237 17:0.766439 18:0.793426 19:0.649608 20:0.222222 21:0.218869 
20 1:0 2:1 3:0 4:0 5:1 6:0 7:1 8:0 9:0 10:0 11:0 12:0 13:0 14:0.271839 15:0.121318 16:0 17:0.28062 18:0.285219 19:0.11451 20:0.249999 21:0.63905 
20 1:0 2:1 3:0 4:0 5:1 6:0 7:1 8:0 9:0 10:0 11:0 12:0 13:0 14:0.249351 15:0.207094 16:0 17:0.250649 18:0.366228 19:0.141727 20:0.399999 21:0.099494 
20 1:0 2:1 3:0 4:0 5:1 6:0 7:1 8:0 9:0 10:0 11:0 12:0 13:0 14:0.169898 15:0.276261 16:0 17:0.121411 18:0.072832 19:0.050635 20:0.399999 21:0.048973 
20 1:0 2:1 3:0 4:0 5:1 6:0 7:1 8:0 9:0 10:0 11:0.285714 12:0 13:0 14:0.49061 15:0 16:0.299368 17:0.600973 18:0.601229 19:0.397663 20:0.249999 21:0.278028 
-20 1:0 2:1 3:0 4:0 5:1 6:0 7:1 8:0.2 9:0 10:0 11:0.4 12:0 13:0 14:0.543006 15:0.108696 16:0.407416 17:0.627697 18:0.673603 19:0.664317 20:0 21:0.210111 
-20 1:0 2:1 3:0 4:0 5:1 6:0 7:1 8:0 9:0 10:0 11:0 12:0 13:0 14:0.290772 15:0.23406 16:0 17:0.304888 18:0.332118 19:0.102038 20:0.2 21:0.147242 
-12.12750420745543 1:0 2:1 3:0 4:0 5:1 6:0 7:1 8:0 9:0 10:1 11:0 12:0 13:1 14:0.284553 15:0.323851 16:0 17:0.177934 18:0.159239 19:0.054662 20:0.333332 21:0.005552 
-20 1:0 2:1 3:0 4:0 5:1 6:0 7:1 8:0.181818 9:0 10:0 11:0.181818 12:0 13:0 14:0.383587 15:0.127926 16:0.190876 17:0.308756 18:0.297084 19:0.393293 20:0.166666 21:0.074118 
20 1:0 2:1 3:0 4:0 5:1 6:0 7:1 8:0 9:0 10:1 11:0 12:0 13:1 14:0.18871 15:0.241398 16:0 17:0.575592 18:0.477401 19:0.199103 20:0.499999 21:0.600389 
